{"learner":{"attributes":{"scikit_learn":"{\"_estimator_type\": \"classifier\"}"},"feature_names":[],"feature_types":[],"gradient_booster":{"model":{"gbtree_model_param":{"num_parallel_tree":"1","num_trees":"300"},"iteration_indptr":[0,3,6,9,12,15,18,21,24,27,30,33,36,39,42,45,48,51,54,57,60,63,66,69,72,75,78,81,84,87,90,93,96,99,102,105,108,111,114,117,120,123,126,129,132,135,138,141,144,147,150,153,156,159,162,165,168,171,174,177,180,183,186,189,192,195,198,201,204,207,210,213,216,219,222,225,228,231,234,237,240,243,246,249,252,255,258,261,264,267,270,273,276,279,282,285,288,291,294,297,300],"tree_info":[0,1,2,0,1,2,0,1,2,0,1,2,0,1,2,0,1,2,0,1,2,0,1,2,0,1,2,0,1,2,0,1,2,0,1,2,0,1,2,0,1,2,0,1,2,0,1,2,0,1,2,0,1,2,0,1,2,0,1,2,0,1,2,0,1,2,0,1,2,0,1,2,0,1,2,0,1,2,0,1,2,0,1,2,0,1,2,0,1,2,0,1,2,0,1,2,0,1,2,0,1,2,0,1,2,0,1,2,0,1,2,0,1,2,0,1,2,0,1,2,0,1,2,0,1,2,0,1,2,0,1,2,0,1,2,0,1,2,0,1,2,0,1,2,0,1,2,0,1,2,0,1,2,0,1,2,0,1,2,0,1,2,0,1,2,0,1,2,0,1,2,0,1,2,0,1,2,0,1,2,0,1,2,0,1,2,0,1,2,0,1,2,0,1,2,0,1,2,0,1,2,0,1,2,0,1,2,0,1,2,0,1,2,0,1,2,0,1,2,0,1,2,0,1,2,0,1,2,0,1,2,0,1,2,0,1,2,0,1,2,0,1,2,0,1,2,0,1,2,0,1,2,0,1,2,0,1,2,0,1,2,0,1,2,0,1,2,0,1,2,0,1,2,0,1,2,0,1,2,0,1,2,0,1,2,0,1,2,0,1,2,0,1,2,0,1,2,0,1,2],"trees":[{"base_weights":[2.1227884E-1,8.667917E-1,-5.903891E-1,1.4457832E-1,3.4812284E-1,-7.306591E-2,-3.0927876E-2,6.268656E-2,-2.376238E-2,8.571428E-2,-2.4705887E-2],"categories":[],"categories_nodes":[],"categories_segments":[],"categories_sizes":[],"default_left":[0,0,0,0,0,0,0,0,0,0,0],"id":0,"left_children":[1,3,5,-1,7,-1,9,-1,-1,-1,-1],"loss_changes":[5.660814E1,1.728141E1,3.7878323E0,0E0,5.46439E0,0E0,2.2804472E0,0E0,0E0,0E0,0E0],"parents":[2147483647,0,0,1,1,2,2,4,4,6,6],"right_children":[2,4,6,-1,8,-1,10,-1,-1,-1,-1],"split_conditions":[2E2,1E0,1.75E1,1.4457832E-1,1.94E2,-7.306591E-2,1E0,6.268656E-2,-2.376238E-2,8.571428E-2,-2.4705887E-2],"split_indices":[2,8,1,0,2,0,8,0,0,0,0],"split_type":[0,0,0,0,0,0,0,0,0,0,0],"sum_hessian":[1.0577777E2,5.8222218E1,4.7555553E1,2.6666664E1,3.1555553E1,3.7777775E1,9.777777E0,2.1333332E1,1.0222221E1,1.3333333E0,8.444444E0],"tree_param":{"num_deleted":"0","num_feature":"10","num_nodes":"11","size_leaf_vector":"1"}},{"base_weights":[-2.8374076E-1,-7.384616E-2,4.5205477E-1,-6.568048E-1,1.3463415E0,-2.5544848E-9,-7.0700645E-2,5.454545E-2,1.4254144E-1],"categories":[],"categories_nodes":[],"categories_segments":[],"categories_sizes":[],"default_left":[0,0,0,0,0,0,0,0,0],"id":1,"left_children":[1,-1,3,5,7,-1,-1,-1,-1],"loss_changes":[3.5316185E1,0E0,4.1100727E1,6.19154E-1,6.6498184E-1,0E0,0E0,0E0,0E0],"parents":[2147483647,0,0,2,2,3,3,4,4],"right_children":[2,-1,4,6,8,-1,-1,-1,-1],"split_conditions":[1E0,-7.384616E-2,4.24E1,1.69E1,4.44E1,-2.5544848E-9,-7.0700645E-2,5.454545E-2,1.4254144E-1],"split_indices":[8,0,0,1,0,0,0,0,0],"split_type":[0,0,0,0,0,0,0,0,0],"sum_hessian":[1.0355555E2,6.3999996E1,3.9555553E1,1.7777777E1,2.1777777E1,1.3333333E0,1.6444443E1,2.6666665E0,1.911111E1],"tree_param":{"num_deleted":"0","num_feature":"10","num_nodes":"9","size_leaf_vector":"1"}},{"base_weights":[4.540536E-2,-7.383822E-2,1.3342776E0,1.4594595E-1,-5.1724143E-2],"categories":[],"categories_nodes":[],"categories_segments":[],"categories_sizes":[],"default_left":[0,0,0,0,0],"id":2,"left_children":[1,-1,3,-1,-1],"loss_changes":[1.04811516E2,0E0,9.8456955E0,0E0,0E0],"parents":[2147483647,0,0,2,2],"right_children":[2,-1,4,-1,-1],"split_conditions":[2.08E2,-7.383822E-2,1.75E1,1.4594595E-1,-5.1724143E-2],"split_indices":[2,0,1,0,0],"split_type":[0,0,0,0,0],"sum_hessian":[1.0177777E2,6.3555553E1,3.822222E1,3.5999996E1,2.222222E0],"tree_param":{"num_deleted":"0","num_feature":"10","num_nodes":"5","size_leaf_vector":"1"}},{"base_weights":[2.2186424E-1,7.93468E-1,-5.828568E-1,1.2628005E-1,3.494211E-1,-7.038399E-2,-3.0395001E-2,6.936432E-2,4.8998757E-3,7.90052E-2,-2.7232407E-2],"categories":[],"categories_nodes":[],"categories_segments":[],"categories_sizes":[],"default_left":[0,0,0,0,0,0,0,0,0,0,0],"id":3,"left_children":[1,3,5,-1,7,-1,9,-1,-1,-1,-1],"loss_changes":[5.1327362E1,1.3121475E1,3.0867186E0,0E0,3.5670872E0,0E0,2.080775E0,0E0,0E0,0E0,0E0],"parents":[2147483647,0,0,1,1,2,2,4,4,6,6],"right_children":[2,4,6,-1,8,-1,10,-1,-1,-1,-1],"split_conditions":[2.01E2,1E0,1.75E1,1.2628005E-1,1.91E2,-7.038399E-2,1E0,6.936432E-2,4.8998757E-3,7.90052E-2,-2.7232407E-2],"split_indices":[2,8,1,0,2,0,8,0,0,0,0],"split_type":[0,0,0,0,0,0,0,0,0,0,0],"sum_hessian":[1.0958026E2,6.4078476E1,4.550179E1,3.0255877E1,3.38226E1,3.71027E1,8.39909E0,1.5152298E1,1.8670301E1,1.396738E0,7.0023513E0],"tree_param":{"num_deleted":"0","num_feature":"10","num_nodes":"11","size_leaf_vector":"1"}},{"base_weights":[-2.6983175E-1,-7.11998E-2,4.0592393E-1,-6.497841E-1,1.2165468E0,-9.278544E-5,-6.9669954E-2,5.0994154E-2,1.2795113E-1],"categories":[],"categories_nodes":[],"categories_segments":[],"categories_sizes":[],"default_left":[0,0,0,0,0,0,0,0,0],"id":4,"left_children":[1,-1,3,5,7,-1,-1,-1,-1],"loss_changes":[3.3069206E1,0E0,3.8469646E1,6.0134315E-1,4.710846E-1,0E0,0E0,0E0,0E0],"parents":[2147483647,0,0,2,2,3,3,4,4],"right_children":[2,-1,4,6,8,-1,-1,-1,-1],"split_conditions":[1E0,-7.11998E-2,4.24E1,1.69E1,4.44E1,-9.278544E-5,-6.9669954E-2,5.0994154E-2,1.2795113E-1],"split_indices":[8,0,0,1,0,0,0,0,0],"split_type":[0,0,0,0,0,0,0,0,0],"sum_hessian":[1.0870749E2,6.567853E1,4.302896E1,1.8775394E1,2.4253569E1,1.3347745E0,1.744062E1,2.7288237E0,2.1524744E1],"tree_param":{"num_deleted":"0","num_feature":"10","num_nodes":"9","size_leaf_vector":"1"}},{"base_weights":[2.376974E-2,-7.131544E-2,1.1707401E0,1.2710069E-1,-4.9717266E-2],"categories":[],"categories_nodes":[],"categories_segments":[],"categories_sizes":[],"default_left":[0,0,0,0,0],"id":5,"left_children":[1,-1,3,-1,-1],"loss_changes":[9.2669106E1,0E0,7.8028526E0,0E0,0E0],"parents":[2147483647,0,0,2,2],"right_children":[2,-1,4,-1,-1],"split_conditions":[2.07E2,-7.131544E-2,1.75E1,1.2710069E-1,-4.9717266E-2],"split_indices":[2,0,1,0,0],"split_type":[0,0,0,0,0],"sum_hessian":[1.0764991E2,6.5770706E1,4.18792E1,3.9728863E1,2.1503386E0],"tree_param":{"num_deleted":"0","num_feature":"10","num_nodes":"5","size_leaf_vector":"1"}},{"base_weights":[2.2281733E-1,1.160253E0,-5.6410974E-1,5.701884E-1,1.1958424E-1,-6.3646376E-1,8.353734E-2,8.238125E-2,-4.022065E-3,-2.6600717E-2,-6.804823E-2],"categories":[],"categories_nodes":[],"categories_segments":[],"categories_sizes":[],"default_left":[0,0,0,0,0,0,0,0,0,0,0],"id":6,"left_children":[1,3,5,7,-1,9,-1,-1,-1,-1,-1],"loss_changes":[8.281746E1,3.924179E-1,6.7309856E0,7.7953196E-1,0E0,7.775192E-1,0E0,0E0,0E0,0E0,0E0],"parents":[2147483647,0,0,1,1,2,2,3,3,5,5],"right_children":[2,4,6,8,-1,10,-1,-1,-1,-1,-1],"split_conditions":[4.24E1,1.67E1,1E0,3.78E1,1.1958424E-1,4.44E1,8.353734E-2,8.238125E-2,-4.022065E-3,-2.6600717E-2,-6.804823E-2],"split_indices":[0,1,9,0,0,0,0,0,0,0,0],"split_type":[0,0,0,0,0,0,0,0,0,0,0],"sum_hessian":[1.1037817E2,5.015548E1,6.022269E1,3.8212411E0,4.6334236E1,5.7780617E1,2.442074E0,2.4525874E0,1.3686538E0,6.8844686E0,5.089615E1],"tree_param":{"num_deleted":"0","num_feature":"10","num_nodes":"11","size_leaf_vector":"1"}},{"base_weights":[-2.2759052E-1,-6.871003E-2,4.0339354E-1,-6.325729E-1,1.1126652E0,1.053049E-3,-6.822582E-2,4.7883984E-2,1.1667148E-1],"categories":[],"categories_nodes":[],"categories_segments":[],"categories_sizes":[],"default_left":[0,0,0,0,0,0,0,0,0],"id":7,"left_children":[1,-1,3,5,7,-1,-1,-1,-1],"loss_changes":[3.0168272E1,0E0,3.3086494E1,5.9985256E-1,3.499527E-1,0E0,0E0,0E0,0E0],"parents":[2147483647,0,0,2,2,3,3,4,4],"right_children":[2,-1,4,6,8,-1,-1,-1,-1],"split_conditions":[1E0,-6.871003E-2,4.24E1,3.25E3,4.44E1,1.053049E-3,-6.822582E-2,4.7883984E-2,1.1667148E-1],"split_indices":[8,0,0,3,0,0,0,0,0],"split_type":[0,0,0,0,0,0,0,0,0],"sum_hessian":[1.02092896E2,5.9021767E1,4.307113E1,1.7548223E1,2.5522905E1,1.3150403E0,1.6233183E1,2.7801466E0,2.274276E1],"tree_param":{"num_deleted":"0","num_feature":"10","num_nodes":"9","size_leaf_vector":"1"}},{"base_weights":[2.2478465E-2,-6.904206E-2,1.0296773E0,1.1316893E-1,-5.0869484E-2],"categories":[],"categories_nodes":[],"categories_segments":[],"categories_sizes":[],"default_left":[0,0,0,0,0],"id":8,"left_children":[1,-1,3,-1,-1],"loss_changes":[7.832812E1,0E0,7.669441E0,0E0,0E0],"parents":[2147483647,0,0,2,2],"right_children":[2,-1,4,-1,-1],"split_conditions":[2.08E2,-6.904206E-2,1.75E1,1.1316893E-1,-5.0869484E-2],"split_indices":[2,0,1,0,0],"split_type":[0,0,0,0,0],"sum_hessian":[1.07097275E2,6.289469E1,4.4202583E1,4.1701633E1,2.5009487E0],"tree_param":{"num_deleted":"0","num_feature":"10","num_nodes":"5","size_leaf_vector":"1"}},{"base_weights":[2.1812268E-1,1.0441061E0,-5.331074E-1,5.249135E-1,1.0755356E-1,-6.078012E-1,7.721097E-2,7.613524E-2,-4.551699E-3,-6.725051E-2,-3.3297103E-2],"categories":[],"categories_nodes":[],"categories_segments":[],"categories_sizes":[],"default_left":[0,0,0,0,0,0,0,0,0,0,0],"id":9,"left_children":[1,3,5,7,-1,9,-1,-1,-1,-1,-1],"loss_changes":[6.638697E1,2.65522E-1,5.950467E0,6.897203E-1,0E0,7.316818E-1,0E0,0E0,0E0,0E0,0E0],"parents":[2147483647,0,0,1,1,2,2,3,3,5,5],"right_children":[2,4,6,8,-1,10,-1,-1,-1,-1,-1],"split_conditions":[4.24E1,1.67E1,1E0,3.78E1,1.0755356E-1,1.83E1,7.721097E-2,7.613524E-2,-4.551699E-3,-6.725051E-2,-3.3297103E-2],"split_indices":[0,1,9,0,0,1,0,0,0,0,0],"split_type":[0,0,0,0,0,0,0,0,0,0,0],"sum_hessian":[1.0509181E2,4.986976E1,5.5222057E1,3.8569455E0,4.6012814E1,5.2738323E1,2.4837313E0,2.4901147E0,1.3668311E0,4.1516907E1,1.1221416E1],"tree_param":{"num_deleted":"0","num_feature":"10","num_nodes":"11","size_leaf_vector":"1"}},{"base_weights":[-2.5663522E-1,7.749066E-2,-6.624368E-2,-5.64869E-1,1.0208193E-1,-6.689608E-2,1.12323575E-2],"categories":[],"categories_nodes":[],"categories_segments":[],"categories_sizes":[],"default_left":[0,0,0,0,0,0,0],"id":10,"left_children":[1,3,-1,5,-1,-1,-1],"loss_changes":[1.37772455E1,3.476123E1,0E0,2.4862404E0,0E0,0E0,0E0],"parents":[2147483647,0,0,1,1,3,3],"right_children":[2,4,-1,6,-1,-1,-1],"split_conditions":[1E0,4.44E1,-6.624368E-2,4.24E1,1.0208193E-1,-6.689608E-2,1.12323575E-2],"split_indices":[7,0,0,0,0,0,0],"split_type":[0,0,0,0,0,0,0],"sum_hessian":[1.0023189E2,5.541431E1,4.4817577E1,3.320474E1,2.2209572E1,2.8791351E1,4.4133883E0],"tree_param":{"num_deleted":"0","num_feature":"10","num_nodes":"7","size_leaf_vector":"1"}},{"base_weights":[3.8237233E-2,-6.6903554E-2,9.376201E-1,1.0271428E-1,-4.9054943E-2],"categories":[],"categories_nodes":[],"categories_segments":[],"categories_sizes":[],"default_left":[0,0,0,0,0],"id":11,"left_children":[1,-1,3,-1,-1],"loss_changes":[6.693769E1,0E0,6.4242516E0,0E0,0E0],"parents":[2147483647,0,0,2,2],"right_children":[2,-1,4,-1,-1],"split_conditions":[2.07E2,-6.6903554E-2,1.75E1,1.0271428E-1,-4.9054943E-2],"split_indices":[2,0,1,0,0],"split_type":[0,0,0,0,0],"sum_hessian":[1.0324376E2,5.793775E1,4.5306007E1,4.289782E1,2.4081872E0],"tree_param":{"num_deleted":"0","num_feature":"10","num_nodes":"5","size_leaf_vector":"1"}},{"base_weights":[1.6181011E-1,9.3919307E-1,-5.3147125E-1,-1.476142E-3,9.655458E-2,-6.0692364E-1,7.362739E-2,-6.394884E-2,-2.1317193E-2],"categories":[],"categories_nodes":[],"categories_segments":[],"categories_sizes":[],"default_left":[0,0,0,0,0,0,0,0,0],"id":12,"left_children":[1,3,5,-1,-1,7,-1,-1,-1],"loss_changes":[5.509801E1,1.2239075E0,5.6302567E0,0E0,0E0,5.2651024E-1,0E0,0E0,0E0],"parents":[2147483647,0,0,1,1,2,2,5,5],"right_children":[2,4,6,-1,-1,8,-1,-1,-1],"split_conditions":[4.24E1,1.6E1,1E0,-1.476142E-3,9.655458E-2,1.97E1,7.362739E-2,-6.394884E-2,-2.1317193E-2],"split_indices":[0,1,9,0,0,1,0,0,0],"split_type":[0,0,0,0,0,0,0,0,0],"sum_hessian":[1.003069E2,4.7118156E1,5.3188744E1,1.2784591E0,4.58397E1,5.069291E1,2.4958344E0,4.6244244E1,4.4486647E0],"tree_param":{"num_deleted":"0","num_feature":"10","num_nodes":"9","size_leaf_vector":"1"}},{"base_weights":[-2.5080124E-1,-6.474843E-2,3.341295E-1,-6.381293E-2,9.491882E-2],"categories":[],"categories_nodes":[],"categories_segments":[],"categories_sizes":[],"default_left":[0,0,0,0,0],"id":13,"left_children":[1,-1,3,-1,-1],"loss_changes":[2.186169E1,0E0,2.3543465E1,0E0,0E0],"parents":[2147483647,0,0,2,2],"right_children":[2,-1,4,-1,-1],"split_conditions":[1E0,-6.474843E-2,4.14E1,-6.381293E-2,9.491882E-2],"split_indices":[8,0,0,0,0],"split_type":[0,0,0,0,0],"sum_hessian":[9.228599E1,5.492828E1,3.7357704E1,1.4460944E1,2.289676E1],"tree_param":{"num_deleted":"0","num_feature":"10","num_nodes":"5","size_leaf_vector":"1"}},{"base_weights":[5.582925E-2,-6.5023966E-2,8.657475E-1,9.437977E-2,-4.7125757E-2],"categories":[],"categories_nodes":[],"categories_segments":[],"categories_sizes":[],"default_left":[0,0,0,0,0],"id":14,"left_children":[1,-1,3,-1,-1],"loss_changes":[5.8653713E1,0E0,5.426689E0,0E0,0E0],"parents":[2147483647,0,0,2,2],"right_children":[2,-1,4,-1,-1],"split_conditions":[2.08E2,-6.5023966E-2,1.75E1,9.437977E-2,-4.7125757E-2],"split_indices":[2,0,1,0,0],"split_type":[0,0,0,0,0],"sum_hessian":[1.005825E2,5.384167E1,4.6740826E1,4.444062E1,2.3002076E0],"tree_param":{"num_deleted":"0","num_feature":"10","num_nodes":"5","size_leaf_vector":"1"}},{"base_weights":[1.80816E-1,8.1395775E-1,-5.839833E-1,-4.243764E-2,8.6279696E-1,-1.0333371E-1,-6.196464E-2,8.936144E-2,3.4962643E-2,-4.507247E-2,4.251212E-2],"categories":[],"categories_nodes":[],"categories_segments":[],"categories_sizes":[],"default_left":[0,0,0,0,0,0,0,0,0,0,0],"id":15,"left_children":[1,3,5,-1,7,9,-1,-1,-1,-1,-1],"loss_changes":[5.0203312E1,3.7893677E0,7.432308E-1,0E0,5.5394745E-1,1.0091063E0,0E0,0E0,0E0,0E0,0E0],"parents":[2147483647,0,0,1,1,2,2,4,4,5,5],"right_children":[2,4,6,-1,8,10,-1,-1,-1,-1,-1],"split_conditions":[4.33E1,1.48E1,4.44E1,-4.243764E-2,4.24E1,4.36E1,-6.196464E-2,8.936144E-2,3.4962643E-2,-4.507247E-2,4.251212E-2],"split_indices":[0,1,0,0,0,0,0,0,0,0,0],"split_type":[0,0,0,0,0,0,0,0,0,0,0],"sum_hessian":[1.0169572E2,5.5601524E1,4.609419E1,1.8179331E0,5.3783592E1,3.4530542E0,4.2641136E1,5.003734E1,3.7462516E0,2.1722014E0,1.2808528E0],"tree_param":{"num_deleted":"0","num_feature":"10","num_nodes":"11","size_leaf_vector":"1"}},{"base_weights":[-2.2698389E-1,-6.29591E-2,3.0158675E-1,-6.2002253E-2,8.7195474E-1,2.7863806E-2,8.986121E-2],"categories":[],"categories_nodes":[],"categories_segments":[],"categories_sizes":[],"default_left":[0,0,0,0,0,0,0],"id":16,"left_children":[1,-1,3,-1,5,-1,-1],"loss_changes":[1.8548496E1,0E0,2.0502825E1,0E0,1.2720299E-1,0E0,0E0],"parents":[2147483647,0,0,2,2,4,4],"right_children":[2,-1,4,-1,6,-1,-1],"split_conditions":[1E0,-6.29591E-2,4.24E1,-6.2002253E-2,4.33E1,2.7863806E-2,8.986121E-2],"split_indices":[8,0,0,0,0,0,0],"split_type":[0,0,0,0,0,0,0],"sum_hessian":[8.526916E1,4.8293415E1,3.6975746E1,1.4102176E1,2.287357E1,1.4759363E0,2.1397633E1],"tree_param":{"num_deleted":"0","num_feature":"10","num_nodes":"7","size_leaf_vector":"1"}},{"base_weights":[2.047436E-2,8.1976867E-1,-5.5315113E-1,-3.81377E-2,8.739629E-2,-6.345115E-2,6.6949554E-2],"categories":[],"categories_nodes":[],"categories_segments":[],"categories_sizes":[],"default_left":[0,0,0,0,0,0,0],"id":17,"left_children":[1,3,5,-1,-1,-1,-1],"loss_changes":[4.381763E1,2.9318714E0,5.961561E0,0E0,0E0,0E0,0E0],"parents":[2147483647,0,0,1,1,2,2],"right_children":[2,4,6,-1,-1,-1,-1],"split_conditions":[1.65E1,3.78E1,4.85E3,-3.81377E-2,8.739629E-2,-6.345115E-2,6.6949554E-2],"split_indices":[1,0,3,0,0,0,0],"split_type":[0,0,0,0,0,0,0],"sum_hessian":[9.3579254E1,3.8919464E1,5.4659794E1,1.4195565E0,3.749991E1,5.1700447E1,2.9593446E0],"tree_param":{"num_deleted":"0","num_feature":"10","num_nodes":"7","size_leaf_vector":"1"}},{"base_weights":[1.3341677E-1,8.0857E-1,-4.953721E-1,-1.4593969E-3,8.308353E-2,-5.5370903E-1,6.2173385E-2,-1.8547595E-2,-6.0240563E-2],"categories":[],"categories_nodes":[],"categories_segments":[],"categories_sizes":[],"default_left":[0,0,0,0,0,0,0,0,0],"id":18,"left_children":[1,3,5,-1,-1,7,-1,-1,-1],"loss_changes":[4.1459335E1,8.738842E-1,3.6481524E0,0E0,0E0,7.617283E-1,0E0,0E0,0E0],"parents":[2147483647,0,0,1,1,2,2,5,5],"right_children":[2,4,6,-1,-1,8,-1,-1,-1],"split_conditions":[4.24E1,1.6E1,1E0,-1.4593969E-3,8.308353E-2,4.44E1,6.2173385E-2,-1.8547595E-2,-6.0240563E-2],"split_indices":[0,1,9,0,0,0,0,0,0],"split_type":[0,0,0,0,0,0,0,0,0],"sum_hessian":[9.571615E1,4.6018505E1,4.9697643E1,1.2210231E0,4.479748E1,4.7710464E1,1.9871758E0,6.13415E0,4.1576317E1],"tree_param":{"num_deleted":"0","num_feature":"10","num_nodes":"9","size_leaf_vector":"1"}},{"base_weights":[-1.8169816E-1,-6.1518103E-2,3.3012E-1,-5.3802055E-1,7.9301095E-1,9.914643E-3,-5.994444E-2,3.162984E-2,8.388612E-2],"categories":[],"categories_nodes":[],"categories_segments":[],"categories_sizes":[],"default_left":[0,0,0,0,0,0,0,0,0],"id":19,"left_children":[1,-1,3,5,7,-1,-1,-1,-1],"loss_changes":[1.9609138E1,0E0,1.6806507E1,6.3753176E-1,3.245926E-1,0E0,0E0,0E0,0E0],"parents":[2147483647,0,0,2,2,3,3,4,4],"right_children":[2,-1,4,6,8,-1,-1,-1,-1],"split_conditions":[1E0,-6.1518103E-2,4.24E1,3.25E3,4.44E1,9.914643E-3,-5.994444E-2,3.162984E-2,8.388612E-2],"split_indices":[8,0,0,3,0,0,0,0,0],"split_type":[0,0,0,0,0,0,0,0,0],"sum_hessian":[8.646809E1,4.6707424E1,3.9760666E1,1.3771067E1,2.59896E1,1.1568277E0,1.2614239E1,2.97338E0,2.3016218E1],"tree_param":{"num_deleted":"0","num_feature":"10","num_nodes":"9","size_leaf_vector":"1"}},{"base_weights":[4.2995617E-2,-6.1778467E-2,7.653552E-1,8.2361735E-2,-4.1281797E-2],"categories":[],"categories_nodes":[],"categories_segments":[],"categories_sizes":[],"default_left":[0,0,0,0,0],"id":20,"left_children":[1,-1,3,-1,-1],"loss_changes":[4.4252472E1,0E0,3.3784542E0,0E0,0E0],"parents":[2147483647,0,0,2,2],"right_children":[2,-1,4,-1,-1],"split_conditions":[2.08E2,-6.1778467E-2,1.75E1,8.2361735E-2,-4.1281797E-2],"split_indices":[2,0,1,0,0],"split_type":[0,0,0,0,0],"sum_hessian":[9.07195E1,4.7454834E1,4.3264664E1,4.1512745E1,1.7519181E0],"tree_param":{"num_deleted":"0","num_feature":"10","num_nodes":"5","size_leaf_vector":"1"}},{"base_weights":[1.3681492E-1,7.9041517E-1,-4.6514538E-1,8.018684E-2,2.3062509E-2,-5.365939E-1,6.243948E-2,-6.0835835E-2,-2.885603E-2],"categories":[],"categories_nodes":[],"categories_segments":[],"categories_sizes":[],"default_left":[0,0,0,0,0,0,0,0,0],"id":21,"left_children":[1,3,5,-1,-1,7,-1,-1,-1],"loss_changes":[3.6568577E1,1.0027504E-1,4.1126947E0,0E0,0E0,6.446495E-1,0E0,0E0,0E0],"parents":[2147483647,0,0,1,1,2,2,5,5],"right_children":[2,4,6,-1,-1,8,-1,-1,-1],"split_conditions":[4.24E1,4.675E3,1E0,8.018684E-2,2.3062509E-2,1.83E1,6.243948E-2,-6.0835835E-2,-2.885603E-2],"split_indices":[0,3,9,0,0,1,0,0,0],"split_type":[0,0,0,0,0,0,0,0,0],"sum_hessian":[9.1010956E1,4.3483788E1,4.752717E1,4.218818E1,1.2956066E0,4.5078568E1,2.448603E0,3.3835964E1,1.1242603E1],"tree_param":{"num_deleted":"0","num_feature":"10","num_nodes":"9","size_leaf_vector":"1"}},{"base_weights":[-1.7902029E-1,-6.0250085E-2,3.2664704E-1,-5.173711E-1,7.452987E-1,1.0851365E-2,-5.8263537E-2,2.8988535E-2,7.9007864E-2],"categories":[],"categories_nodes":[],"categories_segments":[],"categories_sizes":[],"default_left":[0,0,0,0,0,0,0,0,0],"id":22,"left_children":[1,-1,3,5,7,-1,-1,-1,-1],"loss_changes":[1.8506739E1,0E0,1.4384968E1,6.239164E-1,3.1939983E-1,0E0,0E0,0E0,0E0],"parents":[2147483647,0,0,2,2,3,3,4,4],"right_children":[2,-1,4,6,8,-1,-1,-1,-1],"split_conditions":[1E0,-6.0250085E-2,4.24E1,3.25E3,4.44E1,1.0851365E-2,-5.8263537E-2,2.8988535E-2,7.9007864E-2],"split_indices":[8,0,0,3,0,0,0,0,0],"split_type":[0,0,0,0,0,0,0,0,0],"sum_hessian":[8.450438E1,4.588534E1,3.8619038E1,1.272637E1,2.5892666E1,1.1391565E0,1.15872135E1,2.987122E0,2.2905544E1],"tree_param":{"num_deleted":"0","num_feature":"10","num_nodes":"9","size_leaf_vector":"1"}},{"base_weights":[2.6037974E-2,-6.0571738E-2,7.228186E-1,7.792681E-2,-3.9884515E-2],"categories":[],"categories_nodes":[],"categories_segments":[],"categories_sizes":[],"default_left":[0,0,0,0,0],"id":23,"left_children":[1,-1,3,-1,-1],"loss_changes":[3.8900906E1,0E0,2.9705315E0,0E0,0E0],"parents":[2147483647,0,0,2,2],"right_children":[2,-1,4,-1,-1],"split_conditions":[2.08E2,-6.0571738E-2,1.75E1,7.792681E-2,-3.9884515E-2],"split_indices":[2,0,1,0,0],"split_type":[0,0,0,0,0],"sum_hessian":[8.6377396E1,4.5371117E1,4.100628E1,3.933209E1,1.6741915E0],"tree_param":{"num_deleted":"0","num_feature":"10","num_nodes":"5","size_leaf_vector":"1"}},{"base_weights":[1.6601738E-1,6.4252555E-1,-5.530402E-1,-4.7224067E-2,7.1788013E-1,-5.7428636E-2,6.1217225E-3,2.8459087E-2,7.448688E-2],"categories":[],"categories_nodes":[],"categories_segments":[],"categories_sizes":[],"default_left":[0,0,0,0,0,0,0,0,0],"id":24,"left_children":[1,3,5,-1,7,-1,-1,-1,-1],"loss_changes":[3.1895004E1,5.0284424E0,5.209646E-1,0E0,4.0413475E-1,0E0,0E0,0E0,0E0],"parents":[2147483647,0,0,1,1,2,2,4,4],"right_children":[2,4,6,-1,8,-1,-1,-1,-1],"split_conditions":[4.44E1,1.48E1,2E1,-4.7224067E-2,1.68E1,-5.7428636E-2,6.1217225E-3,2.8459087E-2,7.448688E-2],"split_indices":[0,1,1,0,1,0,0,0,0],"split_type":[0,0,0,0,0,0,0,0,0],"sum_hessian":[9.104983E1,5.4824757E1,3.622507E1,3.1378396E0,5.1686916E1,3.5076893E1,1.1481794E0,3.7076366E0,4.797928E1],"tree_param":{"num_deleted":"0","num_feature":"10","num_nodes":"9","size_leaf_vector":"1"}},{"base_weights":[-1.8848531E-1,-5.908618E-2,3.1595466E-1,-4.900939E-1,6.958717E-1,1.2443104E-2,-5.6351375E-2,1.46948695E-2,7.5074285E-2],"categories":[],"categories_nodes":[],"categories_segments":[],"categories_sizes":[],"default_left":[0,0,0,0,0,0,0,0,0],"id":25,"left_children":[1,-1,3,5,7,-1,-1,-1,-1],"loss_changes":[1.6289623E1,0E0,1.1320761E1,6.148083E-1,6.361103E-1,0E0,0E0,0E0,0E0],"parents":[2147483647,0,0,2,2,3,3,4,4],"right_children":[2,-1,4,6,8,-1,-1,-1,-1],"split_conditions":[1E0,-5.908618E-2,4.24E1,1.69E1,4.44E1,1.2443104E-2,-5.6351375E-2,1.46948695E-2,7.5074285E-2],"split_indices":[8,0,0,1,0,0,0,0,0],"split_type":[0,0,0,0,0,0,0,0,0],"sum_hessian":[7.833467E1,4.348037E1,3.4854298E1,1.1072467E1,2.3781832E1,1.1075426E0,9.964925E0,2.4954813E0,2.128635E1],"tree_param":{"num_deleted":"0","num_feature":"10","num_nodes":"9","size_leaf_vector":"1"}},{"base_weights":[4.5095406E-2,-5.929286E-2,7.010561E-1,7.414145E-2,-3.4324806E-2],"categories":[],"categories_nodes":[],"categories_segments":[],"categories_sizes":[],"default_left":[0,0,0,0,0],"id":26,"left_children":[1,-1,3,-1,-1],"loss_changes":[3.5539364E1,0E0,2.017828E0,0E0,0E0],"parents":[2147483647,0,0,2,2],"right_children":[2,-1,4,-1,-1],"split_conditions":[2.08E2,-5.929286E-2,1.75E1,7.414145E-2,-3.4324806E-2],"split_indices":[2,0,1,0,0],"split_type":[0,0,0,0,0],"sum_hessian":[8.292381E1,4.2085346E1,4.0838463E1,3.9598186E1,1.2402786E0],"tree_param":{"num_deleted":"0","num_feature":"10","num_nodes":"5","size_leaf_vector":"1"}},{"base_weights":[1.3151355E-1,6.8705046E-1,-4.474894E-1,7.0624284E-2,-1.299199E-3,-5.061026E-1,5.303024E-2,-1.2900296E-2,-5.6031596E-2],"categories":[],"categories_nodes":[],"categories_segments":[],"categories_sizes":[],"default_left":[0,0,0,0,0,0,0,0,0],"id":27,"left_children":[1,3,5,-1,-1,7,-1,-1,-1],"loss_changes":[2.7719116E1,5.9880257E-1,2.6946306E0,0E0,0E0,7.547054E-1,0E0,0E0,0E0],"parents":[2147483647,0,0,1,1,2,2,5,5],"right_children":[2,4,6,-1,-1,8,-1,-1,-1],"split_conditions":[4.24E1,2.07E2,1E0,7.0624284E-2,-1.299199E-3,4.44E1,5.303024E-2,-1.2900296E-2,-5.6031596E-2],"split_indices":[0,2,9,0,0,0,0,0,0],"split_type":[0,0,0,0,0,0,0,0,0],"sum_hessian":[8.4220055E1,4.288577E1,4.1334286E1,4.1732765E1,1.1530029E0,3.945177E1,1.8825138E0,5.383626E0,3.4068146E1],"tree_param":{"num_deleted":"0","num_feature":"10","num_nodes":"9","size_leaf_vector":"1"}},{"base_weights":[-2.0782112E-1,-5.7893723E-2,2.4634053E-1,-4.866816E-1,6.6072416E-1,2.9297543E-3,-5.5444207E-2,7.3752776E-2,2.6626205E-2],"categories":[],"categories_nodes":[],"categories_segments":[],"categories_sizes":[],"default_left":[0,0,0,0,0,0,0,0,0],"id":28,"left_children":[1,-1,3,5,7,-1,-1,-1,-1],"loss_changes":[1.2409367E1,0E0,1.0475843E1,4.5848465E-1,4.6349144E-1,0E0,0E0,0E0,0E0],"parents":[2147483647,0,0,2,2,3,3,4,4],"right_children":[2,-1,4,6,8,-1,-1,-1,-1],"split_conditions":[1E0,-5.7893723E-2,4.24E1,3.25E3,4.075E3,2.9297543E-3,-5.5444207E-2,7.3752776E-2,2.6626205E-2],"split_indices":[8,0,0,3,3,0,0,0,0],"split_type":[0,0,0,0,0,0,0,0,0],"sum_hessian":[7.177954E1,3.935007E1,3.242947E1,1.1648838E1,2.078063E1,1.4180865E0,1.0230752E1,1.6665985E1,4.1146464E0],"tree_param":{"num_deleted":"0","num_feature":"10","num_nodes":"9","size_leaf_vector":"1"}},{"base_weights":[3.292116E-2,-5.827294E-2,6.609416E-1,7.101943E-2,-3.7142366E-2],"categories":[],"categories_nodes":[],"categories_segments":[],"categories_sizes":[],"default_left":[0,0,0,0,0],"id":29,"left_children":[1,-1,3,-1,-1],"loss_changes":[3.1903471E1,0E0,2.339468E0,0E0,0E0],"parents":[2147483647,0,0,2,2],"right_children":[2,-1,4,-1,-1],"split_conditions":[2.08E2,-5.827294E-2,1.75E1,7.101943E-2,-3.7142366E-2],"split_indices":[2,0,1,0,0],"split_type":[0,0,0,0,0],"sum_hessian":[8.051829E1,4.0695988E1,3.9822296E1,3.83068E1,1.5154953E0],"tree_param":{"num_deleted":"0","num_feature":"10","num_nodes":"5","size_leaf_vector":"1"}},{"base_weights":[1.4420232E-1,6.337844E-1,-5.0756097E-1,-3.2483272E-2,6.6497356E-1,-5.5284494E-1,-4.1914333E-2,2.7634403E-2,6.953167E-2,-2.5100702E-2,-5.699389E-2,4.7225118E-2,-4.0473398E-2],"categories":[],"categories_nodes":[],"categories_segments":[],"categories_sizes":[],"default_left":[0,0,0,0,0,0,0,0,0,0,0,0,0],"id":30,"left_children":[1,3,5,-1,7,9,11,-1,-1,-1,-1,-1,-1],"loss_changes":[2.6269466E1,1.6176739E0,7.2405624E-1,0E0,3.4713554E-1,2.3152351E-2,9.7889656E-1,0E0,0E0,0E0,0E0,0E0,0E0],"parents":[2147483647,0,0,1,1,2,2,4,4,5,5,6,6],"right_children":[2,4,6,-1,8,10,12,-1,-1,-1,-1,-1,-1],"split_conditions":[4.33E1,1.43E1,1.97E1,-3.2483272E-2,1.68E1,4.44E1,4.94E1,2.7634403E-2,6.953167E-2,-2.5100702E-2,-5.699389E-2,4.7225118E-2,-4.0473398E-2],"split_indices":[0,1,1,0,1,0,0,0,0,0,0,0,0],"split_type":[0,0,0,0,0,0,0,0,0,0,0,0,0],"sum_hessian":[8.031765E1,4.5881004E1,3.443664E1,1.1490606E0,4.4731945E1,3.1213842E1,3.2227986E0,3.9715989E0,4.0760345E1,2.5136032E0,2.870024E1,1.2085303E0,2.0142682E0],"tree_param":{"num_deleted":"0","num_feature":"10","num_nodes":"13","size_leaf_vector":"1"}},{"base_weights":[-1.7709291E-1,-5.7030898E-2,2.7975535E-1,-4.6451634E-1,6.348546E-1,1.6923523E-2,-5.4161366E-2,1.3369212E-2,6.880916E-2],"categories":[],"categories_nodes":[],"categories_segments":[],"categories_sizes":[],"default_left":[0,0,0,0,0,0,0,0,0],"id":31,"left_children":[1,-1,3,5,7,-1,-1,-1,-1],"loss_changes":[1.3144543E1,0E0,9.309101E0,6.5815735E-1,5.353441E-1,0E0,0E0,0E0,0E0],"parents":[2147483647,0,0,2,2,3,3,4,4],"right_children":[2,-1,4,6,8,-1,-1,-1,-1],"split_conditions":[1E0,-5.7030898E-2,4.24E1,3.275E3,4.44E1,1.6923523E-2,-5.4161366E-2,1.3369212E-2,6.880916E-2],"split_indices":[8,0,0,3,0,0,0,0,0],"split_type":[0,0,0,0,0,0,0,0,0],"sum_hessian":[7.128341E1,3.8176216E1,3.310719E1,1.059417E1,2.2513021E1,1.0194064E0,9.574763E0,2.4990177E0,2.0014004E1],"tree_param":{"num_deleted":"0","num_feature":"10","num_nodes":"9","size_leaf_vector":"1"}},{"base_weights":[4.0759373E-2,-5.7187624E-2,6.337195E-1,-3.631052E-2,6.8298414E-2],"categories":[],"categories_nodes":[],"categories_segments":[],"categories_sizes":[],"default_left":[0,0,0,0,0],"id":32,"left_children":[1,-1,3,-1,-1],"loss_changes":[2.7539944E1,0E0,2.1382542E0,0E0,0E0],"parents":[2147483647,0,0,2,2],"right_children":[2,-1,4,-1,-1],"split_conditions":[2.08E2,-5.7187624E-2,1E0,-3.631052E-2,6.8298414E-2],"split_indices":[2,0,7,0,0],"split_type":[0,0,0,0,0],"sum_hessian":[7.38139E1,3.6322113E1,3.749179E1,1.4656278E0,3.6026165E1],"tree_param":{"num_deleted":"0","num_feature":"10","num_nodes":"5","size_leaf_vector":"1"}},{"base_weights":[1.360077E-1,5.7806975E-1,-4.919825E-1,-3.7762985E-2,6.233341E-1,-5.404835E-1,-2.8653495E-2,6.537106E-2,2.1774122E-2,-2.1166086E-2,-5.5911835E-2,4.5375027E-2,-3.8931727E-2],"categories":[],"categories_nodes":[],"categories_segments":[],"categories_sizes":[],"default_left":[0,0,0,0,0,0,0,0,0,0,0,0,0],"id":33,"left_children":[1,3,5,-1,7,9,11,-1,-1,-1,-1,-1,-1],"loss_changes":[2.153395E1,2.198577E0,7.072649E-1,0E0,3.961525E-1,5.971527E-2,8.9063585E-1,0E0,0E0,0E0,0E0,0E0,0E0],"parents":[2147483647,0,0,1,1,2,2,4,4,5,5,6,6],"right_children":[2,4,6,-1,8,10,12,-1,-1,-1,-1,-1,-1],"split_conditions":[4.33E1,1.48E1,1.97E1,-3.7762985E-2,4.24E1,4.44E1,4.94E1,6.537106E-2,2.1774122E-2,-2.1166086E-2,-5.5911835E-2,4.5375027E-2,-3.8931727E-2],"split_indices":[0,1,1,0,0,0,0,0,0,0,0,0,0],"split_type":[0,0,0,0,0,0,0,0,0,0,0,0,0],"sum_hessian":[7.554444E1,4.4382027E1,3.1162413E1,1.6749449E0,4.2707085E1,2.8058722E1,3.103691E0,3.9162323E1,3.54476E0,2.1676493E0,2.5891073E1,1.2173431E0,1.886348E0],"tree_param":{"num_deleted":"0","num_feature":"10","num_nodes":"13","size_leaf_vector":"1"}},{"base_weights":[-1.5313864E-1,1.0112062E-1,-5.5257853E-2,-5.0013536E-1,5.542578E-1,1.2968286E-2,-5.508944E-2,6.135709E-2,-3.2592934E-2],"categories":[],"categories_nodes":[],"categories_segments":[],"categories_sizes":[],"default_left":[0,0,0,0,0,0,0,0,0],"id":34,"left_children":[1,3,-1,5,7,-1,-1,-1,-1],"loss_changes":[6.701907E0,1.1401745E1,0E0,6.492281E-1,1.440301E0,0E0,0E0,0E0,0E0],"parents":[2147483647,0,0,1,1,3,3,4,4],"right_children":[2,4,-1,6,8,-1,-1,-1,-1],"split_conditions":[1E0,4.24E1,-5.5257853E-2,1.67E1,1E0,1.2968286E-2,-5.508944E-2,6.135709E-2,-3.2592934E-2],"split_indices":[7,0,0,1,9,0,0,0,0],"split_type":[0,0,0,0,0,0,0,0,0],"sum_hessian":[6.4438614E1,3.9831276E1,2.4607336E1,1.707336E1,2.2757917E1,1.1574041E0,1.5915956E1,2.1604937E1,1.1529803E0],"tree_param":{"num_deleted":"0","num_feature":"10","num_nodes":"9","size_leaf_vector":"1"}},{"base_weights":[1.1304871E-2,-5.6365725E-2,5.9935474E-1,6.589713E-2,-3.7636742E-2],"categories":[],"categories_nodes":[],"categories_segments":[],"categories_sizes":[],"default_left":[0,0,0,0,0],"id":35,"left_children":[1,-1,3,-1,-1],"loss_changes":[2.4106773E1,0E0,2.2978477E0,0E0,0E0],"parents":[2147483647,0,0,2,2],"right_children":[2,-1,4,-1,-1],"split_conditions":[2.08E2,-5.6365725E-2,1.75E1,6.589713E-2,-3.7636742E-2],"split_indices":[2,0,1,0,0],"split_type":[0,0,0,0,0],"sum_hessian":[6.9300186E1,3.5060997E1,3.423919E1,3.257358E1,1.6656092E0],"tree_param":{"num_deleted":"0","num_feature":"10","num_nodes":"5","size_leaf_vector":"1"}},{"base_weights":[1.0737865E-1,6.0747445E-1,-4.0983737E-1,1.5826212E-1,6.494821E-2,-4.700568E-1,4.84945E-2,4.901257E-2,-4.5996364E-2,-5.6010075E-2,-1.8934112E-2],"categories":[],"categories_nodes":[],"categories_segments":[],"categories_sizes":[],"default_left":[0,0,0,0,0,0,0,0,0,0,0],"id":36,"left_children":[1,3,5,7,-1,9,-1,-1,-1,-1,-1],"loss_changes":[1.8897083E1,5.964956E-1,2.1698184E0,1.1468877E0,0E0,7.602782E-1,0E0,0E0,0E0,0E0,0E0],"parents":[2147483647,0,0,1,1,2,2,3,3,5,5],"right_children":[2,4,6,8,-1,10,-1,-1,-1,-1,-1],"split_conditions":[4.23E1,1.67E1,1E0,3.82E1,6.494821E-2,1.83E1,4.84945E-2,4.901257E-2,-4.5996364E-2,-5.6010075E-2,-1.8934112E-2],"split_indices":[0,1,9,0,0,1,0,0,0,0,0],"split_type":[0,0,0,0,0,0,0,0,0,0,0],"sum_hessian":[7.109578E1,3.6057396E1,3.503838E1,3.4912164E0,3.256618E1,3.3273705E1,1.7646732E0,2.4065735E0,1.0846429E0,2.4439192E1,8.834514E0],"tree_param":{"num_deleted":"0","num_feature":"10","num_nodes":"11","size_leaf_vector":"1"}},{"base_weights":[-1.7495848E-1,-5.53647E-2,2.7958387E-1,-4.1762677E-1,5.8360755E-1,1.687987E-2,-5.098284E-2,6.626886E-2,2.197958E-2],"categories":[],"categories_nodes":[],"categories_segments":[],"categories_sizes":[],"default_left":[0,0,0,0,0,0,0,0,0],"id":37,"left_children":[1,-1,3,5,7,-1,-1,-1,-1],"loss_changes":[1.0822278E1,0E0,6.3548436E0,5.9091365E-1,4.4394302E-1,0E0,0E0,0E0,0E0],"parents":[2147483647,0,0,2,2,3,3,4,4],"right_children":[2,-1,4,6,8,-1,-1,-1,-1],"split_conditions":[1E0,-5.53647E-2,4.14E1,3.25E3,4.075E3,1.687987E-2,-5.098284E-2,6.626886E-2,2.197958E-2],"split_indices":[8,0,0,3,3,0,0,0,0],"split_type":[0,0,0,0,0,0,0,0,0],"sum_hessian":[6.097345E1,3.314317E1,2.783028E1,8.337172E0,1.9493109E1,1.0198585E0,7.3173127E0,1.5337674E1,4.1554356E0],"tree_param":{"num_deleted":"0","num_feature":"10","num_nodes":"9","size_leaf_vector":"1"}},{"base_weights":[2.8772369E-2,-5.5530727E-2,5.8398664E-1,6.39431E-2,-3.661078E-2],"categories":[],"categories_nodes":[],"categories_segments":[],"categories_sizes":[],"default_left":[0,0,0,0,0],"id":38,"left_children":[1,-1,3,-1,-1],"loss_changes":[2.2447285E1,0E0,2.1021261E0,0E0,0E0],"parents":[2147483647,0,0,2,2],"right_children":[2,-1,4,-1,-1],"split_conditions":[2.08E2,-5.5530727E-2,1.75E1,6.39431E-2,-3.661078E-2],"split_indices":[2,0,1,0,0],"split_type":[0,0,0,0,0],"sum_hessian":[6.7219925E1,3.275833E1,3.4461594E1,3.287037E1,1.5912248E0],"tree_param":{"num_deleted":"0","num_feature":"10","num_nodes":"5","size_leaf_vector":"1"}},{"base_weights":[1.1463474E-1,4.980886E-1,-4.929347E-1,-4.3116774E-2,5.792342E-1,-5.193351E-2,8.302095E-3,2.0680921E-2,6.1213255E-2],"categories":[],"categories_nodes":[],"categories_segments":[],"categories_sizes":[],"default_left":[0,0,0,0,0,0,0,0,0],"id":39,"left_children":[1,3,5,-1,7,-1,-1,-1,-1],"loss_changes":[1.5631028E1,3.3401709E0,4.3929386E-1,0E0,3.4045315E-1,0E0,0E0,0E0,0E0],"parents":[2147483647,0,0,1,1,2,2,4,4],"right_children":[2,4,6,-1,8,-1,-1,-1,-1],"split_conditions":[4.44E1,1.53E1,2.01E1,-4.3116774E-2,1.68E1,-5.193351E-2,8.302095E-3,2.0680921E-2,6.1213255E-2],"split_indices":[0,1,1,0,1,0,0,0,0],"split_type":[0,0,0,0,0,0,0,0,0],"sum_hessian":[6.503933E1,3.9984314E1,2.5055012E1,2.8647287E0,3.7119587E1,2.4050886E1,1.0041261E0,3.6042392E0,3.3515347E1],"tree_param":{"num_deleted":"0","num_feature":"10","num_nodes":"9","size_leaf_vector":"1"}},{"base_weights":[-1.4268398E-1,-5.4548908E-2,2.7094257E-1,-4.281887E-1,6.0589623E-1,1.713371E-2,-5.1217068E-2,6.4551115E-2,1.6201098E-2],"categories":[],"categories_nodes":[],"categories_segments":[],"categories_sizes":[],"default_left":[0,0,0,0,0,0,0,0,0],"id":40,"left_children":[1,-1,3,5,7,-1,-1,-1,-1],"loss_changes":[1.001378E1,0E0,7.2574663E0,6.046201E-1,2.5797653E-1,0E0,0E0,0E0,0E0],"parents":[2147483647,0,0,2,2,3,3,4,4],"right_children":[2,-1,4,6,8,-1,-1,-1,-1],"split_conditions":[1E0,-5.4548908E-2,4.14E1,1.69E1,4.35E3,1.713371E-2,-5.1217068E-2,6.4551115E-2,1.6201098E-2],"split_indices":[8,0,0,1,3,0,0,0,0],"split_type":[0,0,0,0,0,0,0,0,0],"sum_hessian":[5.8215714E1,2.9332159E1,2.8883556E1,9.2656E0,1.9617956E1,1.010651E0,8.254949E0,1.7593573E1,2.0243833E0],"tree_param":{"num_deleted":"0","num_feature":"10","num_nodes":"9","size_leaf_vector":"1"}},{"base_weights":[3.751801E-2,-5.46492E-2,5.7111555E-1,6.2015068E-2,-3.347263E-2],"categories":[],"categories_nodes":[],"categories_segments":[],"categories_sizes":[],"default_left":[0,0,0,0,0],"id":41,"left_children":[1,-1,3,-1,-1],"loss_changes":[1.9151962E1,0E0,1.6325464E0,0E0,0E0],"parents":[2147483647,0,0,2,2],"right_children":[2,-1,4,-1,-1],"split_conditions":[2.08E2,-5.46492E-2,1.75E1,6.2015068E-2,-3.347263E-2],"split_indices":[2,0,1,0,0],"split_type":[0,0,0,0,0],"sum_hessian":[5.9456554E1,2.8375774E1,3.1080782E1,2.9783903E1,1.2968776E0],"tree_param":{"num_deleted":"0","num_feature":"10","num_nodes":"5","size_leaf_vector":"1"}},{"base_weights":[1.409619E-1,5.226729E-1,-4.6282652E-1,-3.816907E-2,5.9591615E-1,-2.2078915E-1,-5.3238768E-2,4.5677595E-2,-5.118839E-2,3.642361E-2,6.293109E-2,-4.616922E-2,3.9142203E-2],"categories":[],"categories_nodes":[],"categories_segments":[],"categories_sizes":[],"default_left":[0,0,0,0,0,0,0,0,0,0,0,0,0],"id":42,"left_children":[1,3,5,7,9,11,-1,-1,-1,-1,-1,-1,-1],"loss_changes":[1.4889382E1,1.6415205E0,3.058324E-1,1.5214303E0,4.092121E-2,1.2606337E0,0E0,0E0,0E0,0E0,0E0,0E0,0E0],"parents":[2147483647,0,0,1,1,2,2,3,3,4,4,5,5],"right_children":[2,4,6,8,10,12,-1,-1,-1,-1,-1,-1,-1],"split_conditions":[4.33E1,1.68E1,4.6E1,3.96E1,1.75E1,1.79E1,-5.3238768E-2,4.5677595E-2,-5.118839E-2,3.642361E-2,6.293109E-2,-4.616922E-2,3.9142203E-2],"split_indices":[0,1,0,0,1,1,0,0,0,0,0,0,0],"split_type":[0,0,0,0,0,0,0,0,0,0,0,0,0],"sum_hessian":[6.2554058E1,3.8407463E1,2.4146597E1,4.4917626E0,3.39157E1,6.322288E0,1.782431E1,2.2141452E0,2.2776175E0,5.7728534E0,2.8142845E1,4.71343E0,1.6088579E0],"tree_param":{"num_deleted":"0","num_feature":"10","num_nodes":"13","size_leaf_vector":"1"}},{"base_weights":[-1.6642646E-1,-5.3661328E-2,2.3209696E-1,-4.9757045E-2,5.0101596E-1,6.0732123E-2,1.0428309E-2],"categories":[],"categories_nodes":[],"categories_segments":[],"categories_sizes":[],"default_left":[0,0,0,0,0,0,0],"id":43,"left_children":[1,-1,3,-1,5,-1,-1],"loss_changes":[8.046276E0,0E0,5.4602623E0,0E0,7.760787E-1,0E0,0E0],"parents":[2147483647,0,0,2,2,4,4],"right_children":[2,-1,4,-1,6,-1,-1],"split_conditions":[1E0,-5.3661328E-2,4.09E1,-4.9757045E-2,4.075E3,6.0732123E-2,1.0428309E-2],"split_indices":[8,0,0,0,3,0,0],"split_type":[0,0,0,0,0,0,0],"sum_hessian":[5.2696415E1,2.7139832E1,2.5556581E1,6.6534047E0,1.8903177E1,1.4489805E1,4.4133725E0],"tree_param":{"num_deleted":"0","num_feature":"10","num_nodes":"7","size_leaf_vector":"1"}},{"base_weights":[4.9364854E-2,-5.3850185E-2,5.581447E-1,6.0490575E-2,-3.218151E-2],"categories":[],"categories_nodes":[],"categories_segments":[],"categories_sizes":[],"default_left":[0,0,0,0,0],"id":44,"left_children":[1,-1,3,-1,-1],"loss_changes":[1.7361006E1,0E0,1.4730463E0,0E0,0E0],"parents":[2147483647,0,0,2,2],"right_children":[2,-1,4,-1,-1],"split_conditions":[2.08E2,-5.3850185E-2,1.75E1,6.0490575E-2,-3.218151E-2],"split_indices":[2,0,1,0,0],"split_type":[0,0,0,0,0],"sum_hessian":[5.6040268E1,2.5972301E1,3.0067966E1,2.8847582E1,1.2203839E0],"tree_param":{"num_deleted":"0","num_feature":"10","num_nodes":"5","size_leaf_vector":"1"}},{"base_weights":[1.22652516E-1,5.625321E-1,-4.1285017E-1,5.7752103E-2,9.63153E-3,-4.944643E-2,4.5446455E-2],"categories":[],"categories_nodes":[],"categories_segments":[],"categories_sizes":[],"default_left":[0,0,0,0,0,0,0],"id":45,"left_children":[1,3,5,-1,-1,-1,-1],"loss_changes":[1.4526891E1,1.801548E-1,2.2027602E0,0E0,0E0,0E0,0E0],"parents":[2147483647,0,0,1,1,2,2],"right_children":[2,4,6,-1,-1,-1,-1],"split_conditions":[4.24E1,2.05E2,1E0,5.7752103E-2,9.63153E-3,-4.944643E-2,4.5446455E-2],"split_indices":[0,2,9,0,0,0,0],"split_type":[0,0,0,0,0,0,0],"sum_hessian":[5.9684532E1,3.2740185E1,2.6944345E1,3.148907E1,1.2511144E0,2.5019873E1,1.9244738E0],"tree_param":{"num_deleted":"0","num_feature":"10","num_nodes":"7","size_leaf_vector":"1"}},{"base_weights":[-1.4324191E-1,-5.3201735E-2,2.5281924E-1,-3.9579457E-1,5.310625E-1,9.284813E-3,-4.8859067E-2,6.0986843E-2,1.962011E-2],"categories":[],"categories_nodes":[],"categories_segments":[],"categories_sizes":[],"default_left":[0,0,0,0,0,0,0,0,0],"id":46,"left_children":[1,-1,3,5,7,-1,-1,-1,-1],"loss_changes":[8.388514E0,0E0,5.124721E0,4.420297E-1,3.9449692E-1,0E0,0E0,0E0,0E0],"parents":[2147483647,0,0,2,2,3,3,4,4],"right_children":[2,-1,4,6,8,-1,-1,-1,-1],"split_conditions":[1E0,-5.3201735E-2,4.24E1,3.25E3,4.075E3,9.284813E-3,-4.8859067E-2,6.0986843E-2,1.962011E-2],"split_indices":[8,0,0,3,3,0,0,0,0],"split_type":[0,0,0,0,0,0,0,0,0],"sum_hessian":[5.2604828E1,2.6373354E1,2.6231474E1,7.7478814E0,1.8483593E1,1.2364516E0,6.51143E0,1.4297562E1,4.186031E0],"tree_param":{"num_deleted":"0","num_feature":"10","num_nodes":"9","size_leaf_vector":"1"}},{"base_weights":[4.0325164E-3,-5.3391214E-2,5.2845526E-1,5.8824856E-2,-3.3698678E-2],"categories":[],"categories_nodes":[],"categories_segments":[],"categories_sizes":[],"default_left":[0,0,0,0,0],"id":47,"left_children":[1,-1,3,-1,-1],"loss_changes":[1.5132723E1,0E0,1.6035986E0,0E0,0E0],"parents":[2147483647,0,0,2,2],"right_children":[2,-1,4,-1,-1],"split_conditions":[2.07E2,-5.3391214E-2,1.75E1,5.8824856E-2,-3.3698678E-2],"split_indices":[2,0,1,0,0],"split_type":[0,0,0,0,0],"sum_hessian":[5.1641003E1,2.5482924E1,2.615808E1,2.4767206E1,1.390873E0],"tree_param":{"num_deleted":"0","num_feature":"10","num_nodes":"5","size_leaf_vector":"1"}},{"base_weights":[1.23305835E-1,5.4457474E-1,-3.5526937E-1,9.578416E-2,5.8890194E-2,-5.052236E-1,2.7789019E-2,3.8936436E-2,-2.7886642E-2,-5.2773666E-2,-1.603009E-2,6.603936E-2,-4.5808736E-2],"categories":[],"categories_nodes":[],"categories_segments":[],"categories_sizes":[],"default_left":[0,0,0,0,0,0,0,0,0,0,0,0,0],"id":48,"left_children":[1,3,5,7,-1,9,11,-1,-1,-1,-1,-1,-1],"loss_changes":[1.1604454E1,5.502863E-1,1.5708532E0,5.414641E-1,0E0,6.705856E-2,2.937508E0,0E0,0E0,0E0,0E0,0E0,0E0],"parents":[2147483647,0,0,1,1,2,2,3,3,5,5,6,6],"right_children":[2,4,6,8,-1,10,12,-1,-1,-1,-1,-1,-1],"split_conditions":[4.24E1,1.67E1,1.83E1,3.78E1,5.8890194E-2,1.8E1,4.6E1,3.8936436E-2,-2.7886642E-2,-5.2773666E-2,-1.603009E-2,6.603936E-2,-4.5808736E-2],"split_indices":[0,1,1,0,0,1,0,0,0,0,0,0,0],"split_type":[0,0,0,0,0,0,0,0,0,0,0,0,0],"sum_hessian":[5.5599617E1,2.9496885E1,2.610273E1,2.9356618E0,2.6561224E1,1.8529964E1,7.572765E0,1.6238904E0,1.3117714E0,1.689708E1,1.6328851E0,3.1336343E0,4.4391303E0],"tree_param":{"num_deleted":"0","num_feature":"10","num_nodes":"13","size_leaf_vector":"1"}},{"base_weights":[-1.5376274E-1,-5.2598692E-2,2.1440867E-1,6.348634E-2,4.457679E-1,2.134437E-2,-3.2865062E-2,4.8588183E-2,1.9316599E-2],"categories":[],"categories_nodes":[],"categories_segments":[],"categories_sizes":[],"default_left":[0,0,0,0,0,0,0,0,0],"id":49,"left_children":[1,-1,3,5,7,-1,-1,-1,-1],"loss_changes":[6.8270526E0,0E0,8.565594E-1,1.0405862E0,5.837679E-3,0E0,0E0,0E0,0E0],"parents":[2147483647,0,0,2,2,3,3,4,4],"right_children":[2,-1,4,6,8,-1,-1,-1,-1],"split_conditions":[1E0,-5.2598692E-2,1.97E2,3.825E3,4.2E3,2.134437E-2,-3.2865062E-2,4.8588183E-2,1.9316599E-2],"split_indices":[8,0,2,3,3,0,0,0,0],"split_type":[0,0,0,0,0,0,0,0,0],"sum_hessian":[4.799419E1,2.365259E1,2.43416E1,1.5502972E1,8.83863E0,1.1544082E1,3.958889E0,6.8304296E0,2.0081995E0],"tree_param":{"num_deleted":"0","num_feature":"10","num_nodes":"9","size_leaf_vector":"1"}},{"base_weights":[3.3752177E-2,-5.2701056E-2,5.307583E-1,5.7732303E-2,-2.9822936E-2],"categories":[],"categories_nodes":[],"categories_segments":[],"categories_sizes":[],"default_left":[0,0,0,0,0],"id":50,"left_children":[1,-1,3,-1,-1],"loss_changes":[1.4126385E1,0E0,1.2081175E0,0E0,0E0],"parents":[2147483647,0,0,2,2],"right_children":[2,-1,4,-1,-1],"split_conditions":[2.08E2,-5.2701056E-2,1.75E1,5.7732303E-2,-2.9822936E-2],"split_indices":[2,0,1,0,0],"split_type":[0,0,0,0,0],"sum_hessian":[4.8682606E1,2.2845776E1,2.583683E1,2.4750181E1,1.0866497E0],"tree_param":{"num_deleted":"0","num_feature":"10","num_nodes":"5","size_leaf_vector":"1"}},{"base_weights":[1.17478885E-1,4.8199654E-1,-4.2828918E-1,-1.0404899E-1,5.5752486E-1,-4.9178526E-1,4.8004042E-2,3.8072996E-2,-4.8726622E-2,5.7752073E-2,2.5989667E-2,-5.145691E-2,-2.1908993E-2,4.349394E-2,-3.2323323E-2],"categories":[],"categories_nodes":[],"categories_segments":[],"categories_sizes":[],"default_left":[0,0,0,0,0,0,0,0,0,0,0,0,0,0,0],"id":51,"left_children":[1,3,5,7,9,11,13,-1,-1,-1,-1,-1,-1,-1,-1],"loss_changes":[1.0839484E1,1.4972491E0,6.869035E-1,1.0316979E0,2.2258759E-2,8.052826E-3,6.420511E-1,0E0,0E0,0E0,0E0,0E0,0E0,0E0,0E0],"parents":[2147483647,0,0,1,1,2,2,3,3,4,4,5,5,6,6],"right_children":[2,4,6,8,10,12,14,-1,-1,-1,-1,-1,-1,-1,-1],"split_conditions":[4.33E1,1.68E1,1.97E1,3.82E1,4.24E1,1.89E1,4.94E1,3.8072996E-2,-4.8726622E-2,5.7752073E-2,2.5989667E-2,-5.145691E-2,-2.1908993E-2,4.349394E-2,-3.2323323E-2],"split_indices":[0,1,1,0,0,1,0,0,0,0,0,0,0,0,0],"split_type":[0,0,0,0,0,0,0,0,0,0,0,0,0,0,0],"sum_hessian":[5.2447968E1,3.1515596E1,2.0932371E1,3.554855E0,2.7960743E1,1.8441372E1,2.491001E0,1.5723214E0,1.9825336E0,2.5319279E1,2.6414628E0,1.6200811E1,2.2405593E0,1.1356915E0,1.3553094E0],"tree_param":{"num_deleted":"0","num_feature":"10","num_nodes":"15","size_leaf_vector":"1"}},{"base_weights":[-1.5172228E-1,-5.1999748E-2,2.1474056E-1,-4.806463E-2,4.9390727E-1,8.815367E-3,5.692316E-2],"categories":[],"categories_nodes":[],"categories_segments":[],"categories_sizes":[],"default_left":[0,0,0,0,0,0,0],"id":52,"left_children":[1,-1,3,-1,5,-1,-1],"loss_changes":[6.1701145E0,0E0,4.7428513E0,0E0,4.7102928E-1,0E0,0E0],"parents":[2147483647,0,0,2,2,4,4],"right_children":[2,-1,4,-1,6,-1,-1],"split_conditions":[1E0,-5.1999748E-2,4.09E1,-4.806463E-2,4.33E1,8.815367E-3,5.692316E-2],"split_indices":[8,0,0,0,0,0,0],"split_type":[0,0,0,0,0,0,0],"sum_hessian":[4.3890976E1,2.168239E1,2.2208586E1,6.1550417E0,1.6053543E1,2.8533845E0,1.3200159E1],"tree_param":{"num_deleted":"0","num_feature":"10","num_nodes":"7","size_leaf_vector":"1"}},{"base_weights":[-1.4308923E-2,-5.225038E-2,5.090749E-1,5.62963E-2,-2.989513E-2],"categories":[],"categories_nodes":[],"categories_segments":[],"categories_sizes":[],"default_left":[0,0,0,0,0],"id":53,"left_children":[1,-1,3,-1,-1],"loss_changes":[1.2391869E1,0E0,1.1682849E0,0E0,0E0],"parents":[2147483647,0,0,2,2],"right_children":[2,-1,4,-1,-1],"split_conditions":[2.08E2,-5.225038E-2,1.75E1,5.62963E-2,-2.989513E-2],"split_indices":[2,0,1,0,0],"split_type":[0,0,0,0,0],"sum_hessian":[4.4589256E1,2.2623749E1,2.196551E1,2.087652E1,1.0889901E0],"tree_param":{"num_deleted":"0","num_feature":"10","num_nodes":"5","size_leaf_vector":"1"}},{"base_weights":[1.13176644E-1,5.278376E-1,-3.4470245E-1,1.1377073E-1,5.6609143E-2,-4.2061988E-1,4.120117E-2,3.5979327E-2,-2.4027945E-2,-5.199492E-2,-1.0463442E-2],"categories":[],"categories_nodes":[],"categories_segments":[],"categories_sizes":[],"default_left":[0,0,0,0,0,0,0,0,0,0,0],"id":54,"left_children":[1,3,5,7,-1,9,-1,-1,-1,-1,-1],"loss_changes":[9.554864E0,3.5219002E-1,1.5558107E0,3.892123E-1,0E0,6.475916E-1,0E0,0E0,0E0,0E0,0E0],"parents":[2147483647,0,0,1,1,2,2,3,3,5,5],"right_children":[2,4,6,8,-1,10,-1,-1,-1,-1,-1],"split_conditions":[4.24E1,1.67E1,1E0,3.78E1,5.6609143E-2,1.85E1,4.120117E-2,3.5979327E-2,-2.4027945E-2,-5.199492E-2,-1.0463442E-2],"split_indices":[0,1,9,0,0,1,0,0,0,0,0],"split_type":[0,0,0,0,0,0,0,0,0,0,0],"sum_hessian":[4.836632E1,2.5300808E1,2.3065512E1,2.4758484E0,2.282496E1,2.1366104E1,1.6994069E0,1.45121E0,1.0246384E0,1.5764946E1,5.601159E0],"tree_param":{"num_deleted":"0","num_feature":"10","num_nodes":"11","size_leaf_vector":"1"}},{"base_weights":[-1.511685E-1,-5.137505E-2,1.9049726E-1,-4.7104873E-2,4.3487307E-1,6.8163136E-3,5.529508E-2],"categories":[],"categories_nodes":[],"categories_segments":[],"categories_sizes":[],"default_left":[0,0,0,0,0,0,0],"id":55,"left_children":[1,-1,3,-1,5,-1,-1],"loss_changes":[5.4714603E0,0E0,3.9331875E0,0E0,7.140424E-1,0E0,0E0],"parents":[2147483647,0,0,2,2,4,4],"right_children":[2,-1,4,-1,6,-1,-1],"split_conditions":[1E0,-5.137505E-2,4.09E1,-4.7104873E-2,4.44E1,6.8163136E-3,5.529508E-2],"split_indices":[8,0,0,0,0,0,0],"split_type":[0,0,0,0,0,0,0],"sum_hessian":[4.237675E1,2.0314726E1,2.2062025E1,5.7011013E0,1.6360924E1,4.369133E0,1.199179E1],"tree_param":{"num_deleted":"0","num_feature":"10","num_nodes":"7","size_leaf_vector":"1"}},{"base_weights":[5.3842296E-4,-5.160519E-2,4.8961854E-1,5.5297237E-2,-3.1427808E-2],"categories":[],"categories_nodes":[],"categories_segments":[],"categories_sizes":[],"default_left":[0,0,0,0,0],"id":56,"left_children":[1,-1,3,-1,-1],"loss_changes":[1.0751412E1,0E0,1.2870345E0,0E0,0E0],"parents":[2147483647,0,0,2,2],"right_children":[2,-1,4,-1,-1],"split_conditions":[2.07E2,-5.160519E-2,1.75E1,5.5297237E-2,-3.1427808E-2],"split_indices":[2,0,1,0,0],"split_type":[0,0,0,0,0],"sum_hessian":[4.055383E1,1.9695417E1,2.085841E1,1.9624008E1,1.2344022E0],"tree_param":{"num_deleted":"0","num_feature":"10","num_nodes":"5","size_leaf_vector":"1"}},{"base_weights":[1.188134E-1,5.10784E-1,-3.3420625E-1,6.355145E-2,5.57685E-2,-4.0937376E-1,3.9652117E-2,3.4609403E-2,-2.681968E-2,-4.727349E-2,6.9483817E-3],"categories":[],"categories_nodes":[],"categories_segments":[],"categories_sizes":[],"default_left":[0,0,0,0,0,0,0,0,0,0,0],"id":57,"left_children":[1,3,5,7,-1,9,-1,-1,-1,-1,-1],"loss_changes":[8.594045E0,5.063071E-1,1.4041793E0,4.2838946E-1,0E0,6.697769E-1,0E0,0E0,0E0,0E0,0E0],"parents":[2147483647,0,0,1,1,2,2,3,3,5,5],"right_children":[2,4,6,8,-1,10,-1,-1,-1,-1,-1],"split_conditions":[4.24E1,1.67E1,1E0,3.78E1,5.57685E-2,1.97E1,3.9652117E-2,3.4609403E-2,-2.681968E-2,-4.727349E-2,6.9483817E-3],"split_indices":[0,1,9,0,0,1,0,0,0,0,0],"split_type":[0,0,0,0,0,0,0,0,0,0,0],"sum_hessian":[4.643662E1,2.4827433E1,2.1609188E1,2.5800433E0,2.2247389E1,1.9992407E1,1.6167798E0,1.3700011E0,1.2100422E0,1.766748E1,2.3249278E0],"tree_param":{"num_deleted":"0","num_feature":"10","num_nodes":"11","size_leaf_vector":"1"}},{"base_weights":[-1.06894545E-1,-5.078378E-2,2.5379896E-1,-4.6110258E-2,5.2785087E-1,6.036605E-3,5.695493E-2],"categories":[],"categories_nodes":[],"categories_segments":[],"categories_sizes":[],"default_left":[0,0,0,0,0,0,0],"id":58,"left_children":[1,-1,3,-1,5,-1,-1],"loss_changes":[5.6240506E0,0E0,4.2930107E0,0E0,2.6597548E-1,0E0,0E0],"parents":[2147483647,0,0,2,2,4,4],"right_children":[2,-1,4,-1,6,-1,-1],"split_conditions":[1E0,-5.078378E-2,4.09E1,-4.6110258E-2,4.24E1,6.036605E-3,5.695493E-2],"split_indices":[8,0,0,0,0,0,0],"split_type":[0,0,0,0,0,0,0],"sum_hessian":[3.6997875E1,1.732814E1,1.9669733E1,5.2616E0,1.4408133E1,1.3803693E0,1.3027763E1],"tree_param":{"num_deleted":"0","num_feature":"10","num_nodes":"7","size_leaf_vector":"1"}},{"base_weights":[1.1680714E-2,5.0148016E-1,-4.469377E-1,-1.43772885E-2,5.4315865E-2,-5.1348288E-2,3.2577436E-2],"categories":[],"categories_nodes":[],"categories_segments":[],"categories_sizes":[],"default_left":[0,0,0,0,0,0,0],"id":59,"left_children":[1,3,5,-1,-1,-1,-1],"loss_changes":[9.377262E0,6.206646E-1,1.2765317E0,0E0,0E0,0E0,0E0],"parents":[2147483647,0,0,1,1,2,2],"right_children":[2,4,6,-1,-1,-1,-1],"split_conditions":[1.66E1,3.975E3,4.85E3,-1.43772885E-2,5.4315865E-2,-5.1348288E-2,3.2577436E-2],"split_indices":[1,3,3,0,0,0,0],"split_type":[0,0,0,0,0,0,0],"sum_hessian":[3.97474E1,1.9175121E1,2.0572277E1,1.0147961E0,1.8160324E1,1.924997E1,1.3223082E0],"tree_param":{"num_deleted":"0","num_feature":"10","num_nodes":"7","size_leaf_vector":"1"}},{"base_weights":[1.0755482E-1,4.339523E-1,-4.410902E-1,-1.2650968E-1,5.324862E-1,-4.702965E-2,-5.882863E-3,3.697725E-2,-4.762508E-2,2.8847143E-2,5.721735E-2],"categories":[],"categories_nodes":[],"categories_segments":[],"categories_sizes":[],"default_left":[0,0,0,0,0,0,0,0,0,0,0],"id":60,"left_children":[1,3,5,7,9,-1,-1,-1,-1,-1,-1],"loss_changes":[8.014211E0,1.60778E0,1.5978932E-1,1.0402638E0,6.6544056E-2,0E0,0E0,0E0,0E0,0E0,0E0],"parents":[2147483647,0,0,1,1,2,2,3,3,4,4],"right_children":[2,4,6,8,10,-1,-1,-1,-1,-1,-1],"split_conditions":[4.44E1,1.68E1,1.99E1,3.82E1,1.75E1,-4.702965E-2,-5.882863E-3,3.697725E-2,-4.762508E-2,2.8847143E-2,5.721735E-2],"split_indices":[0,1,1,0,1,0,0,0,0,0,0],"split_type":[0,0,0,0,0,0,0,0,0,0,0],"sum_hessian":[4.268415E1,2.689371E1,1.5790441E1,3.9787285E0,2.2914982E1,1.4455668E1,1.3347715E0,1.6211061E0,2.3576224E0,4.362298E0,1.8552683E1],"tree_param":{"num_deleted":"0","num_feature":"10","num_nodes":"11","size_leaf_vector":"1"}},{"base_weights":[-1.3095729E-1,-5.0274372E-2,1.8101954E-1,-2.8248802E-1,5.3246457E-2,1.4165652E-2,-4.8119944E-2],"categories":[],"categories_nodes":[],"categories_segments":[],"categories_sizes":[],"default_left":[0,0,0,0,0,0,0],"id":61,"left_children":[1,-1,3,5,-1,-1,-1],"loss_changes":[4.3408713E0,0E0,3.5155344E0,8.740734E-1,0E0,0E0,0E0],"parents":[2147483647,0,0,2,2,3,3],"right_children":[2,-1,4,6,-1,-1,-1],"split_conditions":[1E0,-5.0274372E-2,4.44E1,1.75E1,5.3246457E-2,1.4165652E-2,-4.8119944E-2],"split_indices":[8,0,0,1,0,0,0],"split_type":[0,0,0,0,0,0,0],"sum_hessian":[3.564032E1,1.5982414E1,1.9657906E1,8.562008E0,1.1095898E1,2.8231623E0,5.7388453E0],"tree_param":{"num_deleted":"0","num_feature":"10","num_nodes":"7","size_leaf_vector":"1"}},{"base_weights":[-9.734422E-3,-5.0660413E-2,4.7215983E-1,5.3458966E-2,-2.9029494E-2],"categories":[],"categories_nodes":[],"categories_segments":[],"categories_sizes":[],"default_left":[0,0,0,0,0],"id":62,"left_children":[1,-1,3,-1,-1],"loss_changes":[8.930638E0,0E0,1.0569649E0,0E0,0E0],"parents":[2147483647,0,0,2,2],"right_children":[2,-1,4,-1,-1],"split_conditions":[2.08E2,-5.0660413E-2,1.75E1,5.3458966E-2,-2.9029494E-2],"split_indices":[2,0,1,0,0],"split_type":[0,0,0,0,0],"sum_hessian":[3.5299232E1,1.7354324E1,1.794491E1,1.6863022E1,1.081888E0],"tree_param":{"num_deleted":"0","num_feature":"10","num_nodes":"5","size_leaf_vector":"1"}},{"base_weights":[1.3623561E-1,4.2961872E-1,-4.249303E-1,-1.21839724E-1,5.207109E-1,-1.3110219E-1,-4.8811916E-2,3.5633665E-2,-4.6630286E-2,2.7580434E-2,5.5979557E-2,-3.4234356E-2,2.1684423E-2],"categories":[],"categories_nodes":[],"categories_segments":[],"categories_sizes":[],"default_left":[0,0,0,0,0,0,0,0,0,0,0,0,0],"id":63,"left_children":[1,3,5,7,9,11,-1,-1,-1,-1,-1,-1,-1],"loss_changes":[6.902663E0,1.434896E0,2.0552516E-1,9.371585E-1,7.1704865E-2,3.6356834E-1,0E0,0E0,0E0,0E0,0E0,0E0,0E0],"parents":[2147483647,0,0,1,1,2,2,3,3,4,4,5,5],"right_children":[2,4,6,8,10,12,-1,-1,-1,-1,-1,-1,-1],"split_conditions":[4.44E1,1.68E1,4.6E1,3.82E1,1.75E1,1.75E1,-4.8811916E-2,3.5633665E-2,-4.6630286E-2,2.7580434E-2,5.5979557E-2,-3.4234356E-2,2.1684423E-2],"split_indices":[0,1,0,0,1,1,0,0,0,0,0,0,0],"split_type":[0,0,0,0,0,0,0,0,0,0,0,0,0],"sum_hessian":[3.981781E1,2.6301527E1,1.3516282E1,3.6808238E0,2.2620703E1,2.936469E0,1.0579813E1,1.5268347E0,2.153989E0,4.222003E0,1.83987E1,1.8371947E0,1.0992744E0],"tree_param":{"num_deleted":"0","num_feature":"10","num_nodes":"13","size_leaf_vector":"1"}},{"base_weights":[-1.7829125E-1,-4.9755458E-2,1.2553868E-1,-3.242966E-1,5.184673E-2,3.880941E-2,-4.6857182E-2],"categories":[],"categories_nodes":[],"categories_segments":[],"categories_sizes":[],"default_left":[0,0,0,0,0,0,0],"id":64,"left_children":[1,-1,3,5,-1,-1,-1],"loss_changes":[3.370983E0,0E0,3.398275E0,1.1208131E0,0E0,0E0,0E0],"parents":[2147483647,0,0,2,2,3,3],"right_children":[2,-1,4,6,-1,-1,-1],"split_conditions":[1E0,-4.9755458E-2,4.44E1,1.68E1,5.184673E-2,3.880941E-2,-4.6857182E-2],"split_indices":[8,0,0,1,0,0,0],"split_type":[0,0,0,0,0,0,0],"sum_hessian":[3.310784E1,1.5832987E1,1.7274853E1,8.135631E0,9.139221E0,1.0855471E0,7.050084E0],"tree_param":{"num_deleted":"0","num_feature":"10","num_nodes":"7","size_leaf_vector":"1"}},{"base_weights":[-6.7672315E-3,-5.0109606E-2,4.636149E-1,5.258174E-2,-2.7990727E-2],"categories":[],"categories_nodes":[],"categories_segments":[],"categories_sizes":[],"default_left":[0,0,0,0,0],"id":65,"left_children":[1,-1,3,-1,-1],"loss_changes":[8.031196E0,0E0,9.660537E-1,0E0,0E0],"parents":[2147483647,0,0,2,2],"right_children":[2,-1,4,-1,-1],"split_conditions":[2.08E2,-5.0109606E-2,1.75E1,5.258174E-2,-2.7990727E-2],"split_indices":[2,0,1,0,0],"split_type":[0,0,0,0,0],"sum_hessian":[3.2540188E1,1.583439E1,1.6705797E1,1.5686296E1,1.019501E0],"tree_param":{"num_deleted":"0","num_feature":"10","num_nodes":"5","size_leaf_vector":"1"}},{"base_weights":[1.054557E-1,3.3545443E-1,-3.7976953E-1,5.239283E-2,1.6122279E-1,-9.218463E-2,-4.7101367E-2,2.8655247E-3,4.1966733E-2,-1.998704E-2,5.1817675E-3],"categories":[],"categories_nodes":[],"categories_segments":[],"categories_sizes":[],"default_left":[0,0,0,0,0,0,0,0,0,0,0],"id":66,"left_children":[1,3,5,-1,7,9,-1,-1,-1,-1,-1],"loss_changes":[4.3283286E0,7.715702E-1,2.8652406E-1,0E0,5.0157094E-1,7.660067E-2,0E0,0E0,0E0,0E0,0E0],"parents":[2147483647,0,0,1,1,2,2,4,4,5,5],"right_children":[2,4,6,-1,8,10,-1,-1,-1,-1,-1],"split_conditions":[2E2,1E0,4.35E3,5.239283E-2,3.825E3,2.05E2,-4.7101367E-2,2.8655247E-3,4.1966733E-2,-1.998704E-2,5.1817675E-3],"split_indices":[2,8,3,0,3,2,0,0,0,0,0],"split_type":[0,0,0,0,0,0,0,0,0,0,0],"sum_hessian":[3.664237E1,2.5068472E1,1.1573895E1,1.1077926E1,1.3990547E1,3.271868E0,8.302028E0,9.9814825E0,4.009064E0,1.6500124E0,1.6218556E0],"tree_param":{"num_deleted":"0","num_feature":"10","num_nodes":"11","size_leaf_vector":"1"}},{"base_weights":[-1.2403969E-1,-4.9196046E-2,1.7111747E-1,-2.623998E-1,5.153749E-2,1.6123546E-2,-5.3017344E-2],"categories":[],"categories_nodes":[],"categories_segments":[],"categories_sizes":[],"default_left":[0,0,0,0,0,0,0],"id":67,"left_children":[1,-1,3,5,-1,-1,-1],"loss_changes":[3.640763E0,0E0,2.9580534E0,1.1103421E0,0E0,0E0,0E0],"parents":[2147483647,0,0,2,2,3,3],"right_children":[2,-1,4,6,-1,-1,-1],"split_conditions":[1E0,-4.9196046E-2,4.44E1,3.425E3,5.153749E-2,1.6123546E-2,-5.3017344E-2],"split_indices":[8,0,0,3,0,0,0],"split_type":[0,0,0,0,0,0,0],"sum_hessian":[3.1751028E1,1.3836594E1,1.7914434E1,8.034505E0,9.87993E0,3.2657478E0,4.7687573E0],"tree_param":{"num_deleted":"0","num_feature":"10","num_nodes":"7","size_leaf_vector":"1"}},{"base_weights":[-5.890483E-3,-4.971688E-2,4.5902646E-1,5.187107E-2,-1.4377179E-2],"categories":[],"categories_nodes":[],"categories_segments":[],"categories_sizes":[],"default_left":[0,0,0,0,0],"id":68,"left_children":[1,-1,3,-1,-1],"loss_changes":[7.56159E0,0E0,6.867721E-1,0E0,0E0],"parents":[2147483647,0,0,2,2],"right_children":[2,-1,4,-1,-1],"split_conditions":[2.08E2,-4.971688E-2,1.71E1,5.187107E-2,-1.4377179E-2],"split_indices":[2,0,1,0,0],"split_type":[0,0,0,0,0],"sum_hessian":[3.1107098E1,1.5091023E1,1.6016073E1,1.4700085E1,1.3159889E0],"tree_param":{"num_deleted":"0","num_feature":"10","num_nodes":"5","size_leaf_vector":"1"}},{"base_weights":[1.1098007E-1,5.200232E-2,-3.389873E-1,-4.9730357E-2,1.9647757E-4,5.2518617E-2,-4.0822666E-2],"categories":[],"categories_nodes":[],"categories_segments":[],"categories_sizes":[],"default_left":[0,0,0,0,0,0,0],"id":69,"left_children":[1,-1,3,-1,5,-1,-1],"loss_changes":[6.5111217E0,0E0,9.1267455E-1,0E0,1.5883126E0,0E0,0E0],"parents":[2147483647,0,0,2,2,4,4],"right_children":[2,-1,4,-1,6,-1,-1],"split_conditions":[4.24E1,5.200232E-2,1.83E1,-4.9730357E-2,4.6E1,5.2518617E-2,-4.0822666E-2],"split_indices":[0,0,1,0,0,0,0],"split_type":[0,0,0,0,0,0,0],"sum_hessian":[3.3418E1,1.7423481E1,1.5994516E1,1.0586854E1,5.407662E0,2.2410784E0,3.1665835E0],"tree_param":{"num_deleted":"0","num_feature":"10","num_nodes":"7","size_leaf_vector":"1"}},{"base_weights":[-1.2450809E-1,-4.8818305E-2,1.6658418E-1,-4.3413244E-2,3.8378423E-1,5.1276464E-2,-2.2753226E-3],"categories":[],"categories_nodes":[],"categories_segments":[],"categories_sizes":[],"default_left":[0,0,0,0,0,0,0],"id":70,"left_children":[1,-1,3,-1,5,-1,-1],"loss_changes":[3.2921348E0,0E0,2.461889E0,0E0,7.169689E-1,0E0,0E0],"parents":[2147483647,0,0,2,2,4,4],"right_children":[2,-1,4,-1,6,-1,-1],"split_conditions":[1E0,-4.8818305E-2,4.09E1,-4.3413244E-2,4.075E3,5.1276464E-2,-2.2753226E-3],"split_indices":[8,0,0,0,3,0,0],"split_type":[0,0,0,0,0,0,0],"sum_hessian":[2.932988E1,1.2738283E1,1.6591597E1,4.1407194E0,1.2450877E1,9.253698E0,3.1971786E0],"tree_param":{"num_deleted":"0","num_feature":"10","num_nodes":"7","size_leaf_vector":"1"}},{"base_weights":[3.3931413E-3,-4.9127724E-2,4.5017216E-1,5.1136907E-2,-1.4040159E-2],"categories":[],"categories_nodes":[],"categories_segments":[],"categories_sizes":[],"default_left":[0,0,0,0,0],"id":71,"left_children":[1,-1,3,-1,-1],"loss_changes":[6.671353E0,0E0,6.4488244E-1,0E0,0E0],"parents":[2147483647,0,0,2,2],"right_children":[2,-1,4,-1,-1],"split_conditions":[2.08E2,-4.9127724E-2,1.71E1,5.1136907E-2,-1.4040159E-2],"split_indices":[2,0,1,0,0],"split_type":[0,0,0,0,0],"sum_hessian":[2.8185293E1,1.332849E1,1.4856804E1,1.3583371E1,1.273432E0],"tree_param":{"num_deleted":"0","num_feature":"10","num_nodes":"5","size_leaf_vector":"1"}},{"base_weights":[6.856737E-2,3.941676E-1,-4.0038994E-1,7.6065175E-2,5.3400803E-2,-1.5930456E-1,-4.75306E-2,4.463431E-2,-4.5221023E-2,2.2381967E-2,-3.793677E-2],"categories":[],"categories_nodes":[],"categories_segments":[],"categories_sizes":[],"default_left":[0,0,0,0,0,0,0,0,0,0,0],"id":72,"left_children":[1,3,5,7,-1,9,-1,-1,-1,-1,-1],"loss_changes":[5.2166986E0,8.516457E-1,1.784532E-1,1.6280704E0,0E0,4.9301493E-1,0E0,0E0,0E0,0E0,0E0],"parents":[2147483647,0,0,1,1,2,2,3,3,5,5],"right_children":[2,4,6,8,-1,10,-1,-1,-1,-1,-1],"split_conditions":[4.33E1,1.75E1,4.6E1,4.08E1,5.3400803E-2,1E0,-4.75306E-2,4.463431E-2,-4.5221023E-2,2.2381967E-2,-3.793677E-2],"split_indices":[0,1,0,0,0,5,0,0,0,0,0],"split_type":[0,0,0,0,0,0,0,0,0,0,0],"sum_hessian":[3.213113E1,1.9058304E1,1.3072827E1,6.291237E0,1.2767067E1,3.840442E0,9.232386E0,3.7899117E0,2.501325E0,1.3948951E0,2.4455466E0],"tree_param":{"num_deleted":"0","num_feature":"10","num_nodes":"11","size_leaf_vector":"1"}},{"base_weights":[-1.19556725E-1,-4.8305344E-2,1.6806494E-1,-4.1983753E-2,3.7057278E-1,5.009857E-2,-2.466198E-3],"categories":[],"categories_nodes":[],"categories_segments":[],"categories_sizes":[],"default_left":[0,0,0,0,0,0,0],"id":73,"left_children":[1,-1,3,-1,5,-1,-1],"loss_changes":[3.0364351E0,0E0,2.1226158E0,0E0,6.731558E-1,0E0,0E0],"parents":[2147483647,0,0,2,2,4,4],"right_children":[2,-1,4,-1,6,-1,-1],"split_conditions":[1E0,-4.8305344E-2,4.09E1,-4.1983753E-2,4.075E3,5.009857E-2,-2.466198E-3],"split_indices":[8,0,0,0,3,0,0],"split_type":[0,0,0,0,0,0,0],"sum_hessian":[2.7266512E1,1.174442E1,1.5522092E1,3.7018948E0,1.1820197E1,8.686431E0,3.1337662E0],"tree_param":{"num_deleted":"0","num_feature":"10","num_nodes":"7","size_leaf_vector":"1"}},{"base_weights":[-3.9722896E-3,-4.857526E-2,4.367966E-1,5.0266027E-2,-1.41548235E-2],"categories":[],"categories_nodes":[],"categories_segments":[],"categories_sizes":[],"default_left":[0,0,0,0,0],"id":74,"left_children":[1,-1,3,-1,-1],"loss_changes":[5.8524785E0,0E0,6.195731E-1,0E0,0E0],"parents":[2147483647,0,0,2,2],"right_children":[2,-1,4,-1,-1],"split_conditions":[2.08E2,-4.857526E-2,1.71E1,5.0266027E-2,-1.41548235E-2],"split_indices":[2,0,1,0,0],"split_type":[0,0,0,0,0],"sum_hessian":[2.556088E1,1.2163533E1,1.3397348E1,1.2145093E1,1.2522556E0],"tree_param":{"num_deleted":"0","num_feature":"10","num_nodes":"5","size_leaf_vector":"1"}},{"base_weights":[1.0849384E-1,3.9254755E-1,-4.0731034E-1,-1.4634879E-1,4.9760407E-1,-1.3742381E-1,-4.672907E-2,3.1177847E-2,-4.4078734E-2,1.3299825E-2,5.2263226E-2,-3.1202966E-2,1.4481838E-2],"categories":[],"categories_nodes":[],"categories_segments":[],"categories_sizes":[],"default_left":[0,0,0,0,0,0,0,0,0,0,0,0,0],"id":75,"left_children":[1,3,5,7,9,11,-1,-1,-1,-1,-1,-1,-1],"loss_changes":[4.751606E0,1.2458229E0,1.2389135E-1,6.976141E-1,9.0788364E-2,2.191279E-1,0E0,0E0,0E0,0E0,0E0,0E0,0E0],"parents":[2147483647,0,0,1,1,2,2,3,3,4,4,5,5],"right_children":[2,4,6,8,10,12,-1,-1,-1,-1,-1,-1,-1],"split_conditions":[4.44E1,1.68E1,4.6E1,3.96E1,1.82E2,1.71E1,-4.672907E-2,3.1177847E-2,-4.4078734E-2,1.3299825E-2,5.2263226E-2,-3.1202966E-2,1.4481838E-2],"split_indices":[0,1,0,0,2,1,0,0,0,0,0,0,0],"split_type":[0,0,0,0,0,0,0,0,0,0,0,0,0],"sum_hessian":[3.033934E1,1.971902E1,1.0620318E1,3.1529012E0,1.656612E1,2.52955E0,8.090769E0,1.2105197E0,1.9423815E0,1.4697024E0,1.5096417E1,1.497562E0,1.031988E0],"tree_param":{"num_deleted":"0","num_feature":"10","num_nodes":"13","size_leaf_vector":"1"}},{"base_weights":[-1.2473729E-1,-4.7798373E-2,1.5676638E-1,-4.1622292E-2,3.6318642E-1,4.8618056E-2,-1.2560964E-3],"categories":[],"categories_nodes":[],"categories_segments":[],"categories_sizes":[],"default_left":[0,0,0,0,0,0,0],"id":76,"left_children":[1,-1,3,-1,5,-1,-1],"loss_changes":[2.706207E0,0E0,1.9819494E0,0E0,5.566827E-1,0E0,0E0],"parents":[2147483647,0,0,2,2,4,4],"right_children":[2,-1,4,-1,6,-1,-1],"split_conditions":[1E0,-4.7798373E-2,4.09E1,-4.1622292E-2,4.075E3,4.8618056E-2,-1.2560964E-3],"split_indices":[8,0,0,0,3,0,0],"split_type":[0,0,0,0,0,0,0],"sum_hessian":[2.5460886E1,1.0982043E1,1.4478843E1,3.5654182E0,1.09134245E1,8.000652E0,2.9127722E0],"tree_param":{"num_deleted":"0","num_feature":"10","num_nodes":"7","size_leaf_vector":"1"}},{"base_weights":[-7.2273156E-3,-4.8249707E-2,4.407378E-1,4.9646355E-2,-7.4560465E-3],"categories":[],"categories_nodes":[],"categories_segments":[],"categories_sizes":[],"default_left":[0,0,0,0,0],"id":77,"left_children":[1,-1,3,-1,-1],"loss_changes":[5.562987E0,0E0,4.2350626E-1,0E0,0E0],"parents":[2147483647,0,0,2,2],"right_children":[2,-1,4,-1,-1],"split_conditions":[2.07E2,-4.8249707E-2,1.69E1,4.9646355E-2,-7.4560465E-3],"split_indices":[2,0,1,0,0],"split_type":[0,0,0,0,0],"sum_hessian":[2.4130224E1,1.1670884E1,1.245934E1,1.1276429E1,1.1829114E0],"tree_param":{"num_deleted":"0","num_feature":"10","num_nodes":"5","size_leaf_vector":"1"}},{"base_weights":[1.1362335E-1,3.7915695E-1,-3.964237E-1,-1.5132613E-1,4.7339848E-1,-1.2687434E-1,-4.588942E-2,2.879521E-2,-4.2337637E-2,2.334758E-2,5.2140396E-2,-2.9467931E-2,1.2461103E-2],"categories":[],"categories_nodes":[],"categories_segments":[],"categories_sizes":[],"default_left":[0,0,0,0,0,0,0,0,0,0,0,0,0],"id":78,"left_children":[1,3,5,7,9,11,-1,-1,-1,-1,-1,-1,-1],"loss_changes":[4.0999365E0,1.0559819E0,1.18135095E-1,5.67427E-1,7.361984E-2,1.7820555E-1,0E0,0E0,0E0,0E0,0E0,0E0,0E0],"parents":[2147483647,0,0,1,1,2,2,3,3,4,4,5,5],"right_children":[2,4,6,8,10,12,-1,-1,-1,-1,-1,-1,-1],"split_conditions":[4.44E1,1.68E1,4.6E1,3.96E1,1.75E1,4.56E1,-4.588942E-2,2.879521E-2,-4.2337637E-2,2.334758E-2,5.2140396E-2,-2.9467931E-2,1.2461103E-2],"split_indices":[0,1,0,0,1,0,0,0,0,0,0,0,0],"split_type":[0,0,0,0,0,0,0,0,0,0,0,0,0],"sum_hessian":[2.8162632E1,1.8689426E1,9.473205E0,2.727979E0,1.5961448E1,2.3526924E0,7.1205125E0,1.0209705E0,1.7070085E0,3.6388192E0,1.2322628E1,1.3081001E0,1.0445921E0],"tree_param":{"num_deleted":"0","num_feature":"10","num_nodes":"13","size_leaf_vector":"1"}},{"base_weights":[-1.2450557E-1,-4.7454234E-2,1.5189976E-1,-2.5677708E-1,4.8574958E-2,-5.0113708E-2,2.614181E-3],"categories":[],"categories_nodes":[],"categories_segments":[],"categories_sizes":[],"default_left":[0,0,0,0,0,0,0],"id":79,"left_children":[1,-1,3,5,-1,-1,-1],"loss_changes":[2.5060174E0,0E0,2.1459246E0,5.1880443E-1,0E0,0E0,0E0],"parents":[2147483647,0,0,2,2,3,3],"right_children":[2,-1,4,6,-1,-1,-1],"split_conditions":[1E0,-4.7454234E-2,4.44E1,1E0,4.8574958E-2,-5.0113708E-2,2.614181E-3],"split_indices":[8,0,0,5,0,0,0],"split_type":[0,0,0,0,0,0,0],"sum_hessian":[2.4156422E1,1.0342259E1,1.3814162E1,6.3148284E0,7.499334E0,2.9744525E0,3.3403761E0],"tree_param":{"num_deleted":"0","num_feature":"10","num_nodes":"7","size_leaf_vector":"1"}},{"base_weights":[4.757372E-3,-4.7757916E-2,4.356263E-1,4.9249724E-2,-1.0967608E-2],"categories":[],"categories_nodes":[],"categories_segments":[],"categories_sizes":[],"default_left":[0,0,0,0,0],"id":80,"left_children":[1,-1,3,-1,-1],"loss_changes":[5.19577E0,0E0,4.6334577E-1,0E0,0E0],"parents":[2147483647,0,0,2,2],"right_children":[2,-1,4,-1,-1],"split_conditions":[2.08E2,-4.7757916E-2,1.71E1,4.9249724E-2,-1.0967608E-2],"split_indices":[2,0,1,0,0],"split_type":[0,0,0,0,0],"sum_hessian":[2.2999771E1,1.0800611E1,1.2199161E1,1.1134728E1,1.0644323E0],"tree_param":{"num_deleted":"0","num_feature":"10","num_nodes":"5","size_leaf_vector":"1"}},{"base_weights":[7.904755E-2,4.4456136E-1,-3.202553E-1,4.1118963E-4,4.996111E-2,-4.764201E-2,-1.2619632E-2,4.2649526E-2,-3.802013E-2],"categories":[],"categories_nodes":[],"categories_segments":[],"categories_sizes":[],"default_left":[0,0,0,0,0,0,0,0,0],"id":81,"left_children":[1,3,5,-1,-1,-1,7,-1,-1],"loss_changes":[4.1212554E0,3.532033E-1,6.4783585E-1,0E0,0E0,0E0,1.0676317E0,0E0,0E0],"parents":[2147483647,0,0,1,1,2,2,6,6],"right_children":[2,4,6,-1,-1,-1,8,-1,-1],"split_conditions":[4.24E1,1.67E1,1.83E1,4.1118963E-4,4.996111E-2,-4.764201E-2,4.6E1,4.2649526E-2,-3.802013E-2],"split_indices":[0,1,1,0,0,0,0,0,0],"split_type":[0,0,0,0,0,0,0,0,0],"sum_hessian":[2.626182E1,1.3651848E1,1.2609971E1,1.6361116E0,1.2015737E1,8.000192E0,4.609779E0,2.0274744E0,2.5823047E0],"tree_param":{"num_deleted":"0","num_feature":"10","num_nodes":"9","size_leaf_vector":"1"}},{"base_weights":[-1.08079106E-1,-4.6801455E-2,1.6555645E-1,-1.9945188E-1,4.7522787E-2,3.2665942E-2,-3.4214173E-2],"categories":[],"categories_nodes":[],"categories_segments":[],"categories_sizes":[],"default_left":[0,0,0,0,0,0,0],"id":82,"left_children":[1,-1,3,5,-1,-1,-1],"loss_changes":[2.3391771E0,0E0,1.6528673E0,6.3960576E-1,0E0,0E0,0E0],"parents":[2147483647,0,0,2,2,3,3],"right_children":[2,-1,4,6,-1,-1,-1],"split_conditions":[1E0,-4.6801455E-2,4.44E1,1.68E1,4.7522787E-2,3.2665942E-2,-3.4214173E-2],"split_indices":[8,0,0,1,0,0,0],"split_type":[0,0,0,0,0,0,0],"sum_hessian":[2.1963432E1,9.179077E0,1.2784356E1,6.03126E0,6.7530956E0,1.0117059E0,5.019554E0],"tree_param":{"num_deleted":"0","num_feature":"10","num_nodes":"7","size_leaf_vector":"1"}},{"base_weights":[-1.5138376E-2,-4.751426E-2,4.1725457E-1,4.8559006E-2,-1.3051045E-2],"categories":[],"categories_nodes":[],"categories_segments":[],"categories_sizes":[],"default_left":[0,0,0,0,0],"id":83,"left_children":[1,-1,3,-1,-1],"loss_changes":[4.7383285E0,0E0,5.237236E-1,0E0,0E0],"parents":[2147483647,0,0,2,2],"right_children":[2,-1,4,-1,-1],"split_conditions":[2.08E2,-4.751426E-2,1.71E1,4.8559006E-2,-1.3051045E-2],"split_indices":[2,0,1,0,0],"split_type":[0,0,0,0,0],"sum_hessian":[2.1825611E1,1.0527253E1,1.1298358E1,1.0146106E1,1.1522526E0],"tree_param":{"num_deleted":"0","num_feature":"10","num_nodes":"5","size_leaf_vector":"1"}},{"base_weights":[9.559601E-2,3.5455546E-1,-3.9119148E-1,-1.0442624E-1,4.5026356E-1,-1.316803E-1,-4.499176E-2,3.0909294E-2,-4.137882E-2,1.8996432E-2,5.0334185E-2,-2.8088776E-2,9.694895E-3],"categories":[],"categories_nodes":[],"categories_segments":[],"categories_sizes":[],"default_left":[0,0,0,0,0,0,0,0,0,0,0,0,0],"id":84,"left_children":[1,3,5,7,9,11,-1,-1,-1,-1,-1,-1,-1],"loss_changes":[3.4858603E0,8.314357E-1,8.851874E-2,6.258942E-1,1.1112857E-1,1.3649604E-1,0E0,0E0,0E0,0E0,0E0,0E0,0E0],"parents":[2147483647,0,0,1,1,2,2,3,3,4,4,5,5],"right_children":[2,4,6,8,10,12,-1,-1,-1,-1,-1,-1,-1],"split_conditions":[4.44E1,1.68E1,4.6E1,3.96E1,1.75E1,1.71E1,-4.499176E-2,3.0909294E-2,-4.137882E-2,1.8996432E-2,5.0334185E-2,-2.8088776E-2,9.694895E-3],"split_indices":[0,1,0,0,1,1,0,0,0,0,0,0,0],"split_type":[0,0,0,0,0,0,0,0,0,0,0,0,0],"sum_hessian":[2.5552504E1,1.6856752E1,8.695751E0,2.8928053E0,1.3963946E1,2.2029917E0,6.4927597E0,1.238368E0,1.6544373E0,3.140701E0,1.0823245E1,1.1947219E0,1.0082697E0],"tree_param":{"num_deleted":"0","num_feature":"10","num_nodes":"13","size_leaf_vector":"1"}},{"base_weights":[-8.0566496E-2,-4.620748E-2,2.050131E-1,-3.8250115E-2,3.946334E-1,4.8030313E-2,6.619211E-4],"categories":[],"categories_nodes":[],"categories_segments":[],"categories_sizes":[],"default_left":[0,0,0,0,0,0,0],"id":85,"left_children":[1,-1,3,-1,5,-1,-1],"loss_changes":[2.399027E0,0E0,1.5756228E0,0E0,3.3455515E-1,0E0,0E0],"parents":[2147483647,0,0,2,2,4,4],"right_children":[2,-1,4,-1,6,-1,-1],"split_conditions":[1E0,-4.620748E-2,4.09E1,-3.8250115E-2,1.97E1,4.8030313E-2,6.619211E-4],"split_indices":[8,0,0,0,1,0,0],"split_type":[0,0,0,0,0,0,0],"sum_hessian":[2.0149841E1,8.361549E0,1.1788292E1,2.6281402E0,9.1601515E0,7.308628E0,1.8515229E0],"tree_param":{"num_deleted":"0","num_feature":"10","num_nodes":"7","size_leaf_vector":"1"}},{"base_weights":[-6.873148E-3,-4.676586E-2,4.181215E-1,4.7639992E-2,-8.2165236E-4],"categories":[],"categories_nodes":[],"categories_segments":[],"categories_sizes":[],"default_left":[0,0,0,0,0],"id":86,"left_children":[1,-1,3,-1,-1],"loss_changes":[4.184914E0,0E0,2.8033614E-1,0E0,0E0],"parents":[2147483647,0,0,2,2],"right_children":[2,-1,4,-1,-1],"split_conditions":[2.08E2,-4.676586E-2,1.69E1,4.7639992E-2,-8.2165236E-4],"split_indices":[2,0,1,0,0],"split_type":[0,0,0,0,0],"sum_hessian":[1.9371489E1,9.246218E0,1.0125272E1,8.8043375E0,1.3209342E0],"tree_param":{"num_deleted":"0","num_feature":"10","num_nodes":"5","size_leaf_vector":"1"}},{"base_weights":[1.0404979E-1,3.457918E-1,-3.7948218E-1,-1.3557315E-1,4.440691E-1,-1.1069972E-2,-4.413104E-2,2.8163258E-2,-4.0464513E-2,1.817458E-2,4.977564E-2],"categories":[],"categories_nodes":[],"categories_segments":[],"categories_sizes":[],"default_left":[0,0,0,0,0,0,0,0,0,0,0],"id":87,"left_children":[1,3,5,7,9,-1,-1,-1,-1,-1,-1],"loss_changes":[3.033379E0,8.680153E-1,9.659529E-2,5.249714E-1,1.1254096E-1,0E0,0E0,0E0,0E0,0E0,0E0],"parents":[2147483647,0,0,1,1,2,2,3,3,4,4],"right_children":[2,4,6,8,10,-1,-1,-1,-1,-1,-1],"split_conditions":[4.44E1,1.68E1,4.6E1,3.96E1,1.75E1,-1.1069972E-2,-4.413104E-2,2.8163258E-2,-4.0464513E-2,1.817458E-2,4.977564E-2],"split_indices":[0,1,0,0,1,0,0,0,0,0,0],"split_type":[0,0,0,0,0,0,0,0,0,0,0],"sum_hessian":[2.382811E1,1.6075846E1,7.752263E0,2.6612878E0,1.3414557E1,1.971614E0,5.780649E0,1.0251205E0,1.6361673E0,3.0240269E0,1.0390532E1],"tree_param":{"num_deleted":"0","num_feature":"10","num_nodes":"11","size_leaf_vector":"1"}},{"base_weights":[-8.440845E-2,8.1338435E-2,-4.386831E-2,-2.1132381E-1,4.3846276E-2,1.2281861E-2,-4.1731536E-2],"categories":[],"categories_nodes":[],"categories_segments":[],"categories_sizes":[],"default_left":[0,0,0,0,0,0,0],"id":88,"left_children":[1,3,-1,5,-1,-1,-1],"loss_changes":[1.2428641E0,1.6446621E0,0E0,6.594411E-1,0E0,0E0,0E0],"parents":[2147483647,0,0,1,1,3,3],"right_children":[2,4,-1,6,-1,-1,-1],"split_conditions":[1E0,4.44E1,-4.386831E-2,1.75E1,4.3846276E-2,1.2281861E-2,-4.1731536E-2],"split_indices":[7,0,0,1,0,0,0],"split_type":[0,0,0,0,0,0,0],"sum_hessian":[1.9558313E1,1.3849332E1,5.7089815E0,7.836009E0,6.0133224E0,3.142414E0,4.693595E0],"tree_param":{"num_deleted":"0","num_feature":"10","num_nodes":"7","size_leaf_vector":"1"}},{"base_weights":[-2.7152956E-2,-4.6571743E-2,4.0720296E-1,4.6937983E-2,-4.5415987E-3],"categories":[],"categories_nodes":[],"categories_segments":[],"categories_sizes":[],"default_left":[0,0,0,0,0],"id":89,"left_children":[1,-1,3,-1,-1],"loss_changes":[3.8407414E0,0E0,3.0732894E-1,0E0,0E0],"parents":[2147483647,0,0,2,2],"right_children":[2,-1,4,-1,-1],"split_conditions":[2.08E2,-4.6571743E-2,1.69E1,4.6937983E-2,-4.5415987E-3],"split_indices":[2,0,1,0,0],"split_type":[0,0,0,0,0],"sum_hessian":[1.8166576E1,9.003568E0,9.163008E0,8.023745E0,1.1392634E0],"tree_param":{"num_deleted":"0","num_feature":"10","num_nodes":"5","size_leaf_vector":"1"}},{"base_weights":[1.1121134E-1,3.655583E-1,-3.7073871E-1,-8.1727974E-2,4.5820966E-2,-1.11477375E-2,-4.342526E-2,2.9103434E-2,-3.8421676E-2],"categories":[],"categories_nodes":[],"categories_segments":[],"categories_sizes":[],"default_left":[0,0,0,0,0,0,0,0,0],"id":90,"left_children":[1,3,5,7,-1,-1,-1,-1,-1],"loss_changes":[2.8822207E0,6.6612554E-1,8.722246E-2,5.0103056E-1,0E0,0E0,0E0,0E0,0E0],"parents":[2147483647,0,0,1,1,2,2,3,3],"right_children":[2,4,6,8,-1,-1,-1,-1,-1],"split_conditions":[4.44E1,1.68E1,4.6E1,3.96E1,4.5820966E-2,-1.11477375E-2,-4.342526E-2,2.9103434E-2,-3.8421676E-2],"split_indices":[0,1,0,0,0,0,0,0,0],"split_type":[0,0,0,0,0,0,0,0,0],"sum_hessian":[2.1406897E1,1.417016E1,7.236737E0,2.4517794E0,1.1718381E1,1.9661497E0,5.270587E0,1.1152743E0,1.3365049E0],"tree_param":{"num_deleted":"0","num_feature":"10","num_nodes":"9","size_leaf_vector":"1"}},{"base_weights":[-1.060502E-1,-4.542611E-2,1.4263572E-1,-3.780087E-2,3.204598E-1,4.60096E-2,-3.2560283E-3],"categories":[],"categories_nodes":[],"categories_segments":[],"categories_sizes":[],"default_left":[0,0,0,0,0,0,0],"id":91,"left_children":[1,-1,3,-1,5,-1,-1],"loss_changes":[1.7700317E0,0E0,1.2551664E0,0E0,4.9173337E-1,0E0,0E0],"parents":[2147483647,0,0,2,2,4,4],"right_children":[2,-1,4,-1,6,-1,-1],"split_conditions":[1E0,-4.542611E-2,4.09E1,-3.780087E-2,4.075E3,4.60096E-2,-3.2560283E-3],"split_indices":[8,0,0,0,3,0,0],"split_type":[0,0,0,0,0,0,0],"sum_hessian":[1.8692072E1,7.443297E0,1.12487755E1,2.5772364E0,8.671538E0,5.996374E0,2.6751647E0],"tree_param":{"num_deleted":"0","num_feature":"10","num_nodes":"7","size_leaf_vector":"1"}},{"base_weights":[-2.1613322E-2,-4.5826834E-2,3.868112E-1,4.6272498E-2,-7.5640827E-3],"categories":[],"categories_nodes":[],"categories_segments":[],"categories_sizes":[],"default_left":[0,0,0,0,0],"id":92,"left_children":[1,-1,3,-1,-1],"loss_changes":[3.2898479E0,0E0,3.706299E-1,0E0,0E0],"parents":[2147483647,0,0,2,2],"right_children":[2,-1,4,-1,-1],"split_conditions":[2.07E2,-4.5826834E-2,1.69E1,4.6272498E-2,-7.5640827E-3],"split_indices":[2,0,1,0,0],"split_type":[0,0,0,0,0],"sum_hessian":[1.6453033E1,7.8927226E0,8.56031E0,7.3527327E0,1.2075781E0],"tree_param":{"num_deleted":"0","num_feature":"10","num_nodes":"5","size_leaf_vector":"1"}},{"base_weights":[1.0666403E-1,4.6204116E-2,-2.8996652E-1,-4.3857776E-2,-3.817738E-2,2.5990484E-2,-3.3351954E-2],"categories":[],"categories_nodes":[],"categories_segments":[],"categories_sizes":[],"default_left":[0,0,0,0,0,0,0],"id":93,"left_children":[1,-1,3,-1,5,-1,-1],"loss_changes":[2.8257108E0,0E0,3.439321E-1,0E0,4.980677E-1,0E0,0E0],"parents":[2147483647,0,0,2,2,4,4],"right_children":[2,-1,4,-1,6,-1,-1],"split_conditions":[4.24E1,4.6204116E-2,1.8E1,-4.3857776E-2,4.6E1,2.5990484E-2,-3.3351954E-2],"split_indices":[0,0,1,0,0,0,0],"split_type":[0,0,0,0,0,0,0],"sum_hessian":[1.8096624E1,9.457702E0,8.638924E0,4.966026E0,3.672898E0,1.8876861E0,1.7852118E0],"tree_param":{"num_deleted":"0","num_feature":"10","num_nodes":"7","size_leaf_vector":"1"}},{"base_weights":[-9.1991976E-2,-4.4925284E-2,1.5332142E-1,-3.6982547E-2,3.2584822E-1,4.6779584E-2,-3.270503E-3],"categories":[],"categories_nodes":[],"categories_segments":[],"categories_sizes":[],"default_left":[0,0,0,0,0,0,0],"id":94,"left_children":[1,-1,3,-1,5,-1,-1],"loss_changes":[1.7148069E0,0E0,1.192782E0,0E0,4.970566E-1,0E0,0E0],"parents":[2147483647,0,0,2,2,4,4],"right_children":[2,-1,4,-1,6,-1,-1],"split_conditions":[1E0,-4.4925284E-2,4.09E1,-3.6982547E-2,4.075E3,4.6779584E-2,-3.270503E-3],"split_indices":[8,0,0,0,3,0,0],"split_type":[0,0,0,0,0,0,0],"sum_hessian":[1.7780357E1,6.900097E0,1.0880261E1,2.4146926E0,8.465569E0,5.846373E0,2.619196E0],"tree_param":{"num_deleted":"0","num_feature":"10","num_nodes":"7","size_leaf_vector":"1"}},{"base_weights":[-2.3649506E-2,-4.5286518E-2,3.775375E-1,4.5727503E-2,-1.1966719E-2],"categories":[],"categories_nodes":[],"categories_segments":[],"categories_sizes":[],"default_left":[0,0,0,0,0],"id":95,"left_children":[1,-1,3,-1,-1],"loss_changes":[2.960401E0,0E0,4.082954E-1,0E0,0E0],"parents":[2147483647,0,0,2,2],"right_children":[2,-1,4,-1,-1],"split_conditions":[2.08E2,-4.5286518E-2,1.71E1,4.5727503E-2,-1.1966719E-2],"split_indices":[2,0,1,0,0],"split_type":[0,0,0,0,0],"sum_hessian":[1.5199164E1,7.28084E0,7.918325E0,6.893165E0,1.0251596E0],"tree_param":{"num_deleted":"0","num_feature":"10","num_nodes":"5","size_leaf_vector":"1"}},{"base_weights":[8.666036E-2,3.1916237E-1,-3.643047E-1,-1.4362219E-1,4.1641918E-1,-1.1411487E-2,-4.2539414E-2,-4.9921325E-3,-1.7642237E-2,1.5099682E-2,4.739327E-2],"categories":[],"categories_nodes":[],"categories_segments":[],"categories_sizes":[],"default_left":[0,0,0,0,0,0,0,0,0,0,0],"id":96,"left_children":[1,3,5,7,9,-1,-1,-1,-1,-1,-1],"loss_changes":[2.3254697E0,7.095313E-1,6.814277E-2,1.1825934E-3,1.144464E-1,0E0,0E0,0E0,0E0,0E0,0E0],"parents":[2147483647,0,0,1,1,2,2,3,3,4,4],"right_children":[2,4,6,8,10,-1,-1,-1,-1,-1,-1],"split_conditions":[4.44E1,1.68E1,4.6E1,1.66E1,1.75E1,-1.1411487E-2,-4.2539414E-2,-4.9921325E-3,-1.7642237E-2,1.5099682E-2,4.739327E-2],"split_indices":[0,1,0,1,1,0,0,0,0,0,0],"split_type":[0,0,0,0,0,0,0,0,0,0,0],"sum_hessian":[2.007002E1,1.343544E1,6.63458E0,2.2504103E0,1.1185029E1,1.8649077E0,4.7696724E0,1.2374238E0,1.0129865E0,2.6376772E0,8.547352E0],"tree_param":{"num_deleted":"0","num_feature":"10","num_nodes":"11","size_leaf_vector":"1"}},{"base_weights":[-9.245894E-2,-4.4351865E-2,1.4111234E-1,-3.6280837E-2,3.064999E-1,9.5427465E-3,5.036814E-2],"categories":[],"categories_nodes":[],"categories_segments":[],"categories_sizes":[],"default_left":[0,0,0,0,0,0,0],"id":97,"left_children":[1,-1,3,-1,5,-1,-1],"loss_changes":[1.5255511E0,0E0,1.067316E0,0E0,3.339792E-1,0E0,0E0],"parents":[2147483647,0,0,2,2,4,4],"right_children":[2,-1,4,-1,6,-1,-1],"split_conditions":[1E0,-4.4351865E-2,4.09E1,-3.6280837E-2,1E0,9.5427465E-3,5.036814E-2],"split_indices":[8,0,0,0,5,0,0],"split_type":[0,0,0,0,0,0,0],"sum_hessian":[1.684159E1,6.369427E0,1.0472163E1,2.292732E0,8.179431E0,4.667295E0,3.512136E0],"tree_param":{"num_deleted":"0","num_feature":"10","num_nodes":"7","size_leaf_vector":"1"}},{"base_weights":[-5.7855295E-4,-4.4732817E-2,4.071882E-1,4.5041453E-2,5.409209E-3],"categories":[],"categories_nodes":[],"categories_segments":[],"categories_sizes":[],"default_left":[0,0,0,0,0],"id":98,"left_children":[1,-1,3,-1,-1],"loss_changes":[2.9310606E0,0E0,1.0403848E-1,0E0,0E0],"parents":[2147483647,0,0,2,2],"right_children":[2,-1,4,-1,-1],"split_conditions":[2.08E2,-4.4732817E-2,1.66E1,4.5041453E-2,5.409209E-3],"split_indices":[2,0,1,0,0],"split_type":[0,0,0,0,0],"sum_hessian":[1.4089857E1,6.6772437E0,7.412614E0,6.3585763E0,1.0540372E0],"tree_param":{"num_deleted":"0","num_feature":"10","num_nodes":"5","size_leaf_vector":"1"}},{"base_weights":[7.0339255E-2,3.969361E-1,-2.663617E-1,-3.1918937E-3,4.6557687E-2,-4.157896E-2,3.6959663E-2,3.649406E-2,-3.150807E-2],"categories":[],"categories_nodes":[],"categories_segments":[],"categories_sizes":[],"default_left":[0,0,0,0,0,0,0,0,0],"id":99,"left_children":[1,3,5,-1,-1,-1,7,-1,-1],"loss_changes":[2.1761353E0,3.0801952E-1,4.6267283E-1,0E0,0E0,0E0,5.971063E-1,0E0,0E0],"parents":[2147483647,0,0,1,1,2,2,6,6],"right_children":[2,4,6,-1,-1,-1,8,-1,-1],"split_conditions":[4.23E1,1.67E1,1.83E1,-3.1918937E-3,4.6557687E-2,-4.157896E-2,4.6E1,3.649406E-2,-3.150807E-2],"split_indices":[0,1,1,0,0,0,0,0,0],"split_type":[0,0,0,0,0,0,0,0,0],"sum_hessian":[1.782779E1,8.95887E0,8.868918E0,1.3098919E0,7.648978E0,5.6933603E0,3.1755583E0,1.624985E0,1.5505733E0],"tree_param":{"num_deleted":"0","num_feature":"10","num_nodes":"9","size_leaf_vector":"1"}},{"base_weights":[-7.4411266E-2,-4.348456E-2,1.5662456E-1,-3.4484293E-2,3.080796E-1,4.563399E-2,-7.718157E-3],"categories":[],"categories_nodes":[],"categories_segments":[],"categories_sizes":[],"default_left":[0,0,0,0,0,0,0],"id":100,"left_children":[1,-1,3,-1,5,-1,-1],"loss_changes":[1.4365886E0,0E0,9.2267126E-1,0E0,5.369682E-1,0E0,0E0],"parents":[2147483647,0,0,2,2,4,4],"right_children":[2,-1,4,-1,6,-1,-1],"split_conditions":[1E0,-4.348456E-2,4.09E1,-3.4484293E-2,4.075E3,4.563399E-2,-7.718157E-3],"split_indices":[8,0,0,0,3,0,0],"split_type":[0,0,0,0,0,0,0],"sum_hessian":[1.5433623E1,5.6839895E0,9.749634E0,1.9653838E0,7.78425E0,5.487859E0,2.296391E0],"tree_param":{"num_deleted":"0","num_feature":"10","num_nodes":"7","size_leaf_vector":"1"}},{"base_weights":[-3.5304308E-2,4.0391076E-2,-3.9345816E-1,-4.4075005E-2,-3.7579238E-3],"categories":[],"categories_nodes":[],"categories_segments":[],"categories_sizes":[],"default_left":[0,0,0,0,0],"id":101,"left_children":[1,-1,3,-1,-1],"loss_changes":[2.3104208E0,0E0,1.1875713E-1,0E0,0E0],"parents":[2147483647,0,0,2,2],"right_children":[2,-1,4,-1,-1],"split_conditions":[1.65E1,4.0391076E-2,4.475E3,-4.4075005E-2,-3.7579238E-3],"split_indices":[1,0,3,0,0],"split_type":[0,0,0,0,0],"sum_hessian":[1.2677108E1,5.636786E0,7.0403214E0,6.003984E0,1.0363377E0],"tree_param":{"num_deleted":"0","num_feature":"10","num_nodes":"5","size_leaf_vector":"1"}},{"base_weights":[8.1836686E-2,3.354082E-1,-3.2869926E-1,6.5875396E-2,4.7392778E-2,-9.933837E-2,-4.1065652E-2,3.7968338E-2,-3.7897956E-2,-2.6330039E-2,1.0203078E-2],"categories":[],"categories_nodes":[],"categories_segments":[],"categories_sizes":[],"default_left":[0,0,0,0,0,0,0,0,0,0,0],"id":102,"left_children":[1,3,5,7,-1,9,-1,-1,-1,-1,-1],"loss_changes":[1.955766E0,3.964274E-1,9.594339E-2,8.4882927E-1,0E0,1.3364351E-1,0E0,0E0,0E0,0E0,0E0],"parents":[2147483647,0,0,1,1,2,2,3,3,5,5],"right_children":[2,4,6,8,-1,10,-1,-1,-1,-1,-1],"split_conditions":[4.33E1,1.75E1,4.6E1,4.08E1,4.7392778E-2,1.79E1,-4.1065652E-2,3.7968338E-2,-3.7897956E-2,-2.6330039E-2,1.0203078E-2],"split_indices":[0,1,0,0,0,1,0,0,0,0,0],"split_type":[0,0,0,0,0,0,0,0,0,0,0],"sum_hessian":[1.6728275E1,1.0454161E1,6.274115E0,4.049727E0,6.4044337E0,2.2340648E0,4.04005E0,2.4605298E0,1.5891972E0,1.0618871E0,1.1721777E0],"tree_param":{"num_deleted":"0","num_feature":"10","num_nodes":"11","size_leaf_vector":"1"}},{"base_weights":[-1.3265793E-1,-4.3198556E-2,8.8426724E-2,-2.170383E-1,4.1879755E-2,1.7073197E-2,-4.497826E-2],"categories":[],"categories_nodes":[],"categories_segments":[],"categories_sizes":[],"default_left":[0,0,0,0,0,0,0],"id":103,"left_children":[1,-1,3,5,-1,-1,-1],"loss_changes":[1.0098186E0,0E0,1.0268872E0,5.7116675E-1,0E0,0E0,0E0],"parents":[2147483647,0,0,2,2,3,3],"right_children":[2,-1,4,6,-1,-1,-1],"split_conditions":[1E0,-4.3198556E-2,4.44E1,3.4E3,4.1879755E-2,1.7073197E-2,-4.497826E-2],"split_indices":[8,0,0,3,0,0,0],"split_type":[0,0,0,0,0,0,0],"sum_hessian":[1.3682187E1,5.407291E0,8.274896E0,4.477754E0,3.7971413E0,1.7794653E0,2.698289E0],"tree_param":{"num_deleted":"0","num_feature":"10","num_nodes":"7","size_leaf_vector":"1"}},{"base_weights":[-3.602435E-2,4.0309064E-2,-3.8661543E-1,-4.3602433E-2,-3.706536E-3],"categories":[],"categories_nodes":[],"categories_segments":[],"categories_sizes":[],"default_left":[0,0,0,0,0],"id":104,"left_children":[1,-1,3,-1,-1],"loss_changes":[2.1439967E0,0E0,1.1667633E-1,0E0,0E0],"parents":[2147483647,0,0,2,2],"right_children":[2,-1,4,-1,-1],"split_conditions":[1.65E1,4.0309064E-2,4.45E3,-4.3602433E-2,-3.706536E-3],"split_indices":[1,0,3,0,0],"split_type":[0,0,0,0,0],"sum_hessian":[1.1914312E1,5.222895E0,6.691417E0,5.645972E0,1.0454453E0],"tree_param":{"num_deleted":"0","num_feature":"10","num_nodes":"5","size_leaf_vector":"1"}},{"base_weights":[7.936022E-2,2.9399902E-1,-3.4088802E-1,1.930899E-2,4.4822454E-1,-8.429191E-3,-4.047289E-2,3.781077E-2,-4.1855782E-2,1.0446949E-2,4.8950266E-2],"categories":[],"categories_nodes":[],"categories_segments":[],"categories_sizes":[],"default_left":[0,0,0,0,0,0,0,0,0,0,0],"id":105,"left_children":[1,3,5,7,9,-1,-1,-1,-1,-1,-1],"loss_changes":[1.6574397E0,4.9820173E-1,6.907874E-2,9.9830866E-1,5.694723E-2,0E0,0E0,0E0,0E0,0E0,0E0],"parents":[2147483647,0,0,1,1,2,2,3,3,4,4],"right_children":[2,4,6,8,10,-1,-1,-1,-1,-1,-1],"split_conditions":[4.44E1,1.75E1,4.6E1,4.08E1,3.425E3,-8.429191E-3,-4.047289E-2,3.781077E-2,-4.1855782E-2,1.0446949E-2,4.8950266E-2],"split_indices":[0,1,0,0,3,0,0,0,0,0,0],"split_type":[0,0,0,0,0,0,0,0,0,0,0],"sum_hessian":[1.6263765E1,1.0964262E1,5.299503E0,4.347018E0,6.6172442E0,1.5181068E0,3.7813962E0,2.4642386E0,1.8827789E0,1.0879451E0,5.5292993E0],"tree_param":{"num_deleted":"0","num_feature":"10","num_nodes":"11","size_leaf_vector":"1"}},{"base_weights":[-7.471284E-2,-4.223156E-2,1.3705014E-1,-3.386254E-2,2.915498E-1,4.2621776E-2,-5.8868597E-3],"categories":[],"categories_nodes":[],"categories_segments":[],"categories_sizes":[],"default_left":[0,0,0,0,0,0,0],"id":106,"left_children":[1,-1,3,-1,5,-1,-1],"loss_changes":[1.1405289E0,0E0,8.259199E-1,0E0,4.0291077E-1,0E0,0E0],"parents":[2147483647,0,0,2,2,4,4],"right_children":[2,-1,4,-1,6,-1,-1],"split_conditions":[1E0,-4.223156E-2,4.09E1,-3.386254E-2,4.075E3,4.2621776E-2,-5.8868597E-3],"split_indices":[8,0,0,0,3,0,0],"split_type":[0,0,0,0,0,0,0],"sum_hessian":[1.3708048E1,4.813138E0,8.89491E0,1.8885778E0,7.006332E0,4.9049993E0,2.1013327E0],"tree_param":{"num_deleted":"0","num_feature":"10","num_nodes":"7","size_leaf_vector":"1"}},{"base_weights":[-5.0045222E-2,3.8507752E-2,-3.7920216E-1,-4.3546073E-2,-6.101862E-4],"categories":[],"categories_nodes":[],"categories_segments":[],"categories_sizes":[],"default_left":[0,0,0,0,0],"id":107,"left_children":[1,-1,3,-1,-1],"loss_changes":[1.9474156E0,0E0,1.5822136E-1,0E0,0E0],"parents":[2147483647,0,0,2,2],"right_children":[2,-1,4,-1,-1],"split_conditions":[1.64E1,3.8507752E-2,4.5E3,-4.3546073E-2,-6.101862E-4],"split_indices":[1,0,3,0,0],"split_type":[0,0,0,0,0],"sum_hessian":[1.1577483E1,4.912977E0,6.6645064E0,5.646021E0,1.0184858E0],"tree_param":{"num_deleted":"0","num_feature":"10","num_nodes":"5","size_leaf_vector":"1"}},{"base_weights":[1.0772325E-1,3.28929E-1,-3.3132455E-1,-1.5072204E-2,4.223819E-1,-8.503531E-3,-3.9559912E-2,1.4353151E-2,4.8885368E-2],"categories":[],"categories_nodes":[],"categories_segments":[],"categories_sizes":[],"default_left":[0,0,0,0,0,0,0,0,0],"id":108,"left_children":[1,3,5,-1,7,-1,-1,-1,-1],"loss_changes":[1.6844277E0,5.696759E-1,6.027955E-2,0E0,1.09832525E-1,0E0,0E0,0E0,0E0],"parents":[2147483647,0,0,1,1,2,2,4,4],"right_children":[2,4,6,-1,8,-1,-1,-1,-1],"split_conditions":[4.44E1,1.67E1,4.6E1,-1.5072204E-2,1.75E1,-8.503531E-3,-3.9559912E-2,1.4353151E-2,4.8885368E-2],"split_indices":[0,1,0,0,1,0,0,0,0],"split_type":[0,0,0,0,0,0,0,0,0],"sum_hessian":[1.5221656E1,1.0288704E1,4.932952E0,1.5777941E0,8.71091E0,1.5016989E0,3.4312532E0,2.2849178E0,6.4259915E0],"tree_param":{"num_deleted":"0","num_feature":"10","num_nodes":"9","size_leaf_vector":"1"}},{"base_weights":[-6.445611E-2,-4.204572E-2,1.4618513E-1,2.051939E-2,3.4135647E-2,1.8081084E-2,-2.9563753E-2],"categories":[],"categories_nodes":[],"categories_segments":[],"categories_sizes":[],"default_left":[0,0,0,0,0,0,0],"id":109,"left_children":[1,-1,3,5,-1,-1,-1],"loss_changes":[1.1530149E0,0E0,2.354919E-1,4.1217408E-1,0E0,0E0,0E0],"parents":[2147483647,0,0,2,2,3,3],"right_children":[2,-1,4,6,-1,-1,-1],"split_conditions":[1E0,-4.204572E-2,1.97E2,3.825E3,3.4135647E-2,1.8081084E-2,-2.9563753E-2],"split_indices":[8,0,2,3,0,0,0],"split_type":[0,0,0,0,0,0,0],"sum_hessian":[1.3556233E1,4.6690583E0,8.887176E0,6.0785136E0,2.808662E0,4.317593E0,1.7609205E0],"tree_param":{"num_deleted":"0","num_feature":"10","num_nodes":"7","size_leaf_vector":"1"}},{"base_weights":[-3.0844925E-2,-4.2939026E-2,3.433722E-1,4.2404942E-2,-3.444555E-3],"categories":[],"categories_nodes":[],"categories_segments":[],"categories_sizes":[],"default_left":[0,0,0,0,0],"id":110,"left_children":[1,-1,3,-1,-1],"loss_changes":[1.9322977E0,0E0,2.1967763E-1,0E0,0E0],"parents":[2147483647,0,0,2,2],"right_children":[2,-1,4,-1,-1],"split_conditions":[2.08E2,-4.2939026E-2,1.69E1,4.2404942E-2,-3.444555E-3],"split_indices":[2,0,1,0,0],"split_type":[0,0,0,0,0],"sum_hessian":[1.0967462E1,5.239694E0,5.7277675E0,4.6190705E0,1.1086972E0],"tree_param":{"num_deleted":"0","num_feature":"10","num_nodes":"5","size_leaf_vector":"1"}},{"base_weights":[4.580136E-2,4.359425E-2,-2.0818332E-1,-4.2235836E-2,6.0665973E-2,3.020904E-2,-3.1138241E-2],"categories":[],"categories_nodes":[],"categories_segments":[],"categories_sizes":[],"default_left":[0,0,0,0,0,0,0],"id":111,"left_children":[1,-1,3,-1,5,-1,-1],"loss_changes":[1.5726552E0,0E0,5.861701E-1,0E0,5.6032324E-1,0E0,0E0],"parents":[2147483647,0,0,2,2,4,4],"right_children":[2,-1,4,-1,6,-1,-1],"split_conditions":[4.09E1,4.359425E-2,1.8E1,-4.2235836E-2,4.6E1,3.020904E-2,-3.1138241E-2],"split_indices":[0,0,1,0,0,0,0],"split_type":[0,0,0,0,0,0,0],"sum_hessian":[1.3955106E1,5.2201376E0,8.734968E0,4.544038E0,4.1909304E0,2.655679E0,1.5352515E0],"tree_param":{"num_deleted":"0","num_feature":"10","num_nodes":"7","size_leaf_vector":"1"}},{"base_weights":[-1.0226649E-1,-4.154728E-2,1.096195E-1,-1.3739343E-1,3.972791E-2,2.2920618E-2,-4.2293254E-2],"categories":[],"categories_nodes":[],"categories_segments":[],"categories_sizes":[],"default_left":[0,0,0,0,0,0,0],"id":112,"left_children":[1,-1,3,5,-1,-1,-1],"loss_changes":[9.024544E-1,0E0,6.580685E-1,6.5303594E-1,0E0,0E0,0E0],"parents":[2147483647,0,0,2,2,3,3],"right_children":[2,-1,4,6,-1,-1,-1],"split_conditions":[1E0,-4.154728E-2,4.44E1,1.75E1,3.972791E-2,2.2920618E-2,-4.2293254E-2],"split_indices":[8,0,0,1,0,0,0],"split_type":[0,0,0,0,0,0,0],"sum_hessian":[1.1912273E1,4.419141E0,7.493132E0,4.3124294E0,3.1807027E0,1.9745802E0,2.3378491E0],"tree_param":{"num_deleted":"0","num_feature":"10","num_nodes":"7","size_leaf_vector":"1"}},{"base_weights":[-1.2024829E-2,-4.1862756E-2,3.6309287E-1,4.0934585E-2,8.9897495E-3],"categories":[],"categories_nodes":[],"categories_segments":[],"categories_sizes":[],"default_left":[0,0,0,0,0],"id":113,"left_children":[1,-1,3,-1,-1],"loss_changes":[1.7652503E0,0E0,3.9485455E-2,0E0,0E0],"parents":[2147483647,0,0,2,2],"right_children":[2,-1,4,-1,-1],"split_conditions":[2.08E2,-4.1862756E-2,1.61E1,4.0934585E-2,8.9897495E-3],"split_indices":[2,0,1,0,0],"split_type":[0,0,0,0,0],"sum_hessian":[9.57703E0,4.5399914E0,5.0370393E0,3.8815207E0,1.1555185E0],"tree_param":{"num_deleted":"0","num_feature":"10","num_nodes":"5","size_leaf_vector":"1"}},{"base_weights":[1.0116075E-1,3.1270048E-1,-3.2351178E-1,2.5282653E-2,4.7537386E-2,-7.369516E-3,-3.86524E-2,3.5865504E-2,-3.6606085E-2],"categories":[],"categories_nodes":[],"categories_segments":[],"categories_sizes":[],"default_left":[0,0,0,0,0,0,0,0,0],"id":114,"left_children":[1,3,5,7,-1,-1,-1,-1,-1],"loss_changes":[1.4460574E0,4.789797E-1,5.760914E-2,7.6425016E-1,0E0,0E0,0E0,0E0,0E0],"parents":[2147483647,0,0,1,1,2,2,3,3],"right_children":[2,4,6,8,-1,-1,-1,-1,-1],"split_conditions":[4.44E1,1.75E1,4.6E1,4.08E1,4.7537386E-2,-7.369516E-3,-3.86524E-2,3.5865504E-2,-3.6606085E-2],"split_indices":[0,1,0,0,0,0,0,0,0],"split_type":[0,0,0,0,0,0,0,0,0],"sum_hessian":[1.3970706E1,9.501463E0,4.469243E0,3.8516438E0,5.649819E0,1.3372309E0,3.1320124E0,2.1249766E0,1.7266673E0],"tree_param":{"num_deleted":"0","num_feature":"10","num_nodes":"9","size_leaf_vector":"1"}},{"base_weights":[-9.576051E-2,-4.1083742E-2,1.1637589E-1,-1.285501E-1,3.942629E-2,2.033971E-2,-4.0845167E-2],"categories":[],"categories_nodes":[],"categories_segments":[],"categories_sizes":[],"default_left":[0,0,0,0,0,0,0],"id":115,"left_children":[1,-1,3,5,-1,-1,-1],"loss_changes":[8.7046415E-1,0E0,6.0435176E-1,5.548834E-1,0E0,0E0,0E0],"parents":[2147483647,0,0,2,2,3,3],"right_children":[2,-1,4,6,-1,-1,-1],"split_conditions":[1E0,-4.1083742E-2,4.44E1,1.75E1,3.942629E-2,2.033971E-2,-4.0845167E-2],"split_indices":[8,0,0,1,0,0,0],"split_type":[0,0,0,0,0,0,0],"sum_hessian":[1.130792E1,4.173113E0,7.134808E0,4.077954E0,3.056854E0,1.9905736E0,2.0873802E0],"tree_param":{"num_deleted":"0","num_feature":"10","num_nodes":"7","size_leaf_vector":"1"}},{"base_weights":[-4.518483E-3,-4.1823786E-2,3.744137E-1,8.993429E-3,4.132438E-2],"categories":[],"categories_nodes":[],"categories_segments":[],"categories_sizes":[],"default_left":[0,0,0,0,0],"id":116,"left_children":[1,-1,3,-1,-1],"loss_changes":[1.8210344E0,0E0,2.9876828E-2,0E0,0E0],"parents":[2147483647,0,0,2,2],"right_children":[2,-1,4,-1,-1],"split_conditions":[2.08E2,-4.1823786E-2,4.575E3,8.993429E-3,4.132438E-2],"split_indices":[2,0,3,0,0],"split_type":[0,0,0,0,0],"sum_hessian":[9.616978E0,4.5478706E0,5.069107E0,1.0070795E0,4.062028E0],"tree_param":{"num_deleted":"0","num_feature":"10","num_nodes":"5","size_leaf_vector":"1"}},{"base_weights":[5.94796E-2,2.2419573E-1,-2.9221433E-1,4.062514E-2,6.757973E-2,-3.59626E-2,-8.078012E-3,-1.1507205E-2,1.9379424E-2],"categories":[],"categories_nodes":[],"categories_segments":[],"categories_sizes":[],"default_left":[0,0,0,0,0,0,0,0,0],"id":117,"left_children":[1,3,5,-1,7,-1,-1,-1,-1],"loss_changes":[8.7656814E-1,2.6054877E-1,4.0787637E-2,0E0,1.7512815E-1,0E0,0E0,0E0,0E0],"parents":[2147483647,0,0,1,1,2,2,4,4],"right_children":[2,4,6,-1,8,-1,-1,-1,-1],"split_conditions":[2.01E2,1E0,1.75E1,4.062514E-2,1.75E1,-3.59626E-2,-8.078012E-3,-1.1507205E-2,1.9379424E-2],"split_indices":[2,8,1,0,1,0,0,0,0],"split_type":[0,0,0,0,0,0,0,0,0],"sum_hessian":[1.3000684E1,9.100829E0,3.8998544E0,3.471504E0,5.6293254E0,2.4256084E0,1.474246E0,2.3364315E0,3.2928936E0],"tree_param":{"num_deleted":"0","num_feature":"10","num_nodes":"9","size_leaf_vector":"1"}},{"base_weights":[-6.1986748E-2,-4.0240206E-2,1.3778722E-1,-3.0430287E-2,2.7156657E-1,4.0648606E-2,-5.718544E-3],"categories":[],"categories_nodes":[],"categories_segments":[],"categories_sizes":[],"default_left":[0,0,0,0,0,0,0],"id":118,"left_children":[1,-1,3,-1,5,-1,-1],"loss_changes":[8.8817304E-1,0E0,5.8306605E-1,0E0,3.348018E-1,0E0,0E0],"parents":[2147483647,0,0,2,2,4,4],"right_children":[2,-1,4,-1,6,-1,-1],"split_conditions":[1E0,-4.0240206E-2,4.09E1,-3.0430287E-2,4.075E3,4.0648606E-2,-5.718544E-3],"split_indices":[8,0,0,0,3,0,0],"split_type":[0,0,0,0,0,0,0],"sum_hessian":[1.1244886E1,3.7835026E0,7.4613833E0,1.4372276E0,6.0241556E0,4.103594E0,1.9205621E0],"tree_param":{"num_deleted":"0","num_feature":"10","num_nodes":"7","size_leaf_vector":"1"}},{"base_weights":[-2.654324E-2,-4.10139E-2,3.3091706E-1,3.9959874E-2,1.4592268E-3],"categories":[],"categories_nodes":[],"categories_segments":[],"categories_sizes":[],"default_left":[0,0,0,0,0],"id":119,"left_children":[1,-1,3,-1,-1],"loss_changes":[1.4656371E0,0E0,1.1526662E-1,0E0,0E0],"parents":[2147483647,0,0,2,2],"right_children":[2,-1,4,-1,-1],"split_conditions":[2.08E2,-4.10139E-2,1.63E1,3.9959874E-2,1.4592268E-3],"split_indices":[2,0,1,0,0],"split_type":[0,0,0,0,0],"sum_hessian":[8.698896E0,4.1249666E0,4.5739303E0,3.5416896E0,1.0322404E0],"tree_param":{"num_deleted":"0","num_feature":"10","num_nodes":"5","size_leaf_vector":"1"}},{"base_weights":[8.016465E-2,4.2615235E-2,-1.4397793E-1,-3.6384743E-1,1.7291184E-1,-4.163616E-2,-8.767728E-3,3.988968E-2,-2.6711712E-2],"categories":[],"categories_nodes":[],"categories_segments":[],"categories_sizes":[],"default_left":[0,0,0,0,0,0,0,0,0],"id":120,"left_children":[1,-1,3,5,7,-1,-1,-1,-1],"loss_changes":[1.1242346E0,0E0,6.944989E-1,4.578072E-2,5.431954E-1,0E0,0E0,0E0,0E0],"parents":[2147483647,0,0,2,2,3,3,4,4],"right_children":[2,-1,4,6,8,-1,-1,-1,-1],"split_conditions":[4.09E1,4.2615235E-2,1.83E1,1.75E1,4.6E1,-4.163616E-2,-8.767728E-3,3.988968E-2,-2.6711712E-2],"split_indices":[0,0,1,1,0,0,0,0,0],"split_type":[0,0,0,0,0,0,0,0,0],"sum_hessian":[1.270561E1,4.640796E0,8.064815E0,4.673789E0,3.3910255E0,3.5005305E0,1.1732584E0,2.3021765E0,1.088849E0],"tree_param":{"num_deleted":"0","num_feature":"10","num_nodes":"9","size_leaf_vector":"1"}},{"base_weights":[-5.5326838E-2,-3.926855E-2,1.2842718E-1,-3.0701382E-2,2.654729E-1,3.9570194E-2,-3.496001E-3],"categories":[],"categories_nodes":[],"categories_segments":[],"categories_sizes":[],"default_left":[0,0,0,0,0,0,0],"id":121,"left_children":[1,-1,3,-1,5,-1,-1],"loss_changes":[7.81057E-1,0E0,5.817969E-1,0E0,2.8430328E-1,0E0,0E0],"parents":[2147483647,0,0,2,2,4,4],"right_children":[2,-1,4,-1,6,-1,-1],"split_conditions":[1E0,-3.926855E-2,4.09E1,-3.0701382E-2,4.075E3,3.9570194E-2,-3.496001E-3],"split_indices":[8,0,0,0,3,0,0],"split_type":[0,0,0,0,0,0,0],"sum_hessian":[1.0785992E1,3.4024076E0,7.383584E0,1.4706376E0,5.912946E0,3.9036994E0,2.009247E0],"tree_param":{"num_deleted":"0","num_feature":"10","num_nodes":"7","size_leaf_vector":"1"}},{"base_weights":[-2.0624146E-2,-4.0379923E-2,3.1410748E-1,3.9945476E-2,-3.146723E-3],"categories":[],"categories_nodes":[],"categories_segments":[],"categories_sizes":[],"default_left":[0,0,0,0,0],"id":122,"left_children":[1,-1,3,-1,-1],"loss_changes":[1.3353726E0,0E0,1.7748809E-1,0E0,0E0],"parents":[2147483647,0,0,2,2],"right_children":[2,-1,4,-1,-1],"split_conditions":[2.08E2,-4.0379923E-2,1.66E1,3.9945476E-2,-3.146723E-3],"split_indices":[2,0,1,0,0],"split_type":[0,0,0,0,0],"sum_hessian":[8.422489E0,3.8308685E0,4.591621E0,3.5571826E0,1.0344385E0],"tree_param":{"num_deleted":"0","num_feature":"10","num_nodes":"5","size_leaf_vector":"1"}},{"base_weights":[8.0189764E-2,2.5996298E-1,-3.0015898E-1,4.4448234E-2,6.557058E-2,-5.1144995E-3,-3.616467E-2,3.7913214E-2,-3.590718E-2],"categories":[],"categories_nodes":[],"categories_segments":[],"categories_sizes":[],"default_left":[0,0,0,0,0,0,0,0,0],"id":123,"left_children":[1,3,5,-1,7,-1,-1,-1,-1],"loss_changes":[9.4428974E-1,2.9865223E-1,5.0867945E-2,0E0,8.848914E-1,0E0,0E0,0E0,0E0],"parents":[2147483647,0,0,1,1,2,2,4,4],"right_children":[2,4,6,-1,8,-1,-1,-1,-1],"split_conditions":[4.44E1,1E0,4.61E1,4.4448234E-2,4.06E1,-5.1144995E-3,-3.616467E-2,3.7913214E-2,-3.590718E-2],"split_indices":[0,5,0,0,0,0,0,0,0],"split_type":[0,0,0,0,0,0,0,0,0],"sum_hessian":[1.1668963E1,8.138694E0,3.5302691E0,3.5153577E0,4.6233363E0,1.0618333E0,2.4684358E0,2.7211652E0,1.9021711E0],"tree_param":{"num_deleted":"0","num_feature":"10","num_nodes":"9","size_leaf_vector":"1"}},{"base_weights":[-4.625476E-2,-3.8870033E-2,1.4143863E-1,-2.9103694E-2,2.6821768E-1,3.8704317E-2,-2.1105784E-3],